<?xml version="1.0"?>
<opencv_storage>
<opencv_ml_ann_mlp>
  <format>3</format>
  <layer_sizes>
    784 60 50 10</layer_sizes>
  <activation_function>SIGMOID_SYM</activation_function>
  <f_param1>5.9999999999999998e-01</f_param1>
  <f_param2>1.</f_param2>
  <min_val>-9.4999999999999996e-01</min_val>
  <max_val>9.4999999999999996e-01</max_val>
  <min_val1>-9.7999999999999998e-01</min_val1>
  <max_val1>9.7999999999999998e-01</max_val1>
  <training_params>
    <train_method>BACKPROP</train_method>
    <dw_scale>1.0000000000000001e-01</dw_scale>
    <moment_scale>1.0000000000000001e-01</moment_scale>
    <term_criteria>
      <epsilon>1.</epsilon>
      <iterations>100</iterations></term_criteria></training_params>
  <input_scale>
    1. 0. 1. 0. 1. 0. 1. 0. 1. 0. 1. 0. 1. 0. 1. 0. 1. 0. 1. 0. 1. 0. 1.
    0. 1. 0. 1. 0. 1. 0. 1. 0. 1. 0. 1. 0. 1. 0. 1. 0. 1. 0. 1. 0. 1. 0.
    1. 0. 1. 0. 1. 0. 1. 0. 1. 0. 1. 0. 1. 0. 1. 0. 1. 0. 1. 0. 1. 0. 1.
    0. 1. 0. 1. 0. 1. 0. 1. 0. 1. 0. 1. 0. 1. 0. 1. 0. 1. 0. 1. 0. 1. 0.
    1. 0. 1. 0. 1. 0. 1. 0. 1. 0. 1. 0. 1. 0. 1. 0. 1. 0. 1. 0. 1. 0. 1.
    0. 1. 0. 1. 0. 1. 0. 1. 0. 1. 0. 1. 0. 1. 0. 1. 0. 1. 0. 1. 0. 1. 0.
    1. 0. 1. 0. 1. 0. 1. 0. 1. 0. 1. 0. 1. 0. 1. 0. 1. 0. 1. 0. 1. 0. 1.
    0. 1. 0. 1. 0. 1. 0. 1. 0. 1. 0. 1. 0. 1. 0. 1. 0. 1. 0. 1. 0. 1. 0.
    1. 0. 1. 0. 1. 0. 1. 0. 1. 0. 1. 0. 1. 0. 1. 0. 1. 0. 1. 0. 1. 0. 1.
    0. 1. 0. 1. 0. 1. 0. 1. 0. 1. 0. 1. 0. 1. 0. 1. 0. 1. 0. 1. 0. 1. 0.
    1. 0. 1. 0. 1. 0. 1. 0. 1. 0. 1. 0. 1. 0. 1. 0. 1. 0. 1. 0. 1. 0. 1.
    0. 1. 0. 1. 0. 1. 0. 1. 0. 1. 0. 1. 0. 1. 0. 1. 0. 1. 0. 1. 0. 1. 0.
    1. 0. 1. 0. 1. 0. 1. 0. 1. 0. 1. 0. 1. 0. 1. 0. 1. 0. 1. 0. 1. 0. 1.
    0. 1. 0. 1. 0. 1. 0. 1. 0. 1. 0. 1. 0. 1. 0. 1. 0. 1. 0. 1. 0. 1. 0.
    1. 0. 1. 0. 1. 0. 1. 0. 1. 0. 1. 0. 1. 0. 1. 0. 1. 0. 1. 0. 1. 0. 1.
    0. 1. 0. 1. 0. 1. 0. 1. 0. 1. 0. 1. 0. 1. 0. 1. 0. 1. 0. 1. 0. 1. 0.
    1. 0. 1. 0. 1. 0. 1. 0. 1. 0. 1. 0. 1. 0. 1. 0. 1. 0. 1. 0. 1. 0. 1.
    0. 1. 0. 1. 0. 1. 0. 1. 0. 1. 0. 1. 0. 1. 0. 1. 0. 1. 0. 1. 0. 1. 0.
    1. 0. 1. 0. 1. 0. 1. 0. 1. 0. 1. 0. 1. 0. 1. 0. 1. 0. 1. 0. 1. 0. 1.
    0. 1. 0. 1. 0. 1. 0. 1. 0. 1. 0. 1. 0. 1. 0. 1. 0. 1. 0. 1. 0. 1. 0.
    1. 0. 1. 0. 1. 0. 1. 0. 1. 0. 1. 0. 1. 0. 1. 0. 1. 0. 1. 0. 1. 0. 1.
    0. 1. 0. 1. 0. 1. 0. 1. 0. 1. 0. 1. 0. 1. 0. 1. 0. 1. 0. 1. 0. 1. 0.
    1. 0. 1. 0. 1. 0. 1. 0. 1. 0. 1. 0. 1. 0. 1. 0. 1. 0. 1. 0. 1. 0. 1.
    0. 1. 0. 1. 0. 1. 0. 1. 0. 1. 0. 1. 0. 1. 0. 1. 0. 1. 0. 1. 0. 1. 0.
    1. 0. 1. 0. 1. 0. 1. 0. 1. 0. 1. 0. 1. 0. 1. 0. 1. 0. 1. 0. 1. 0. 1.
    0. 1. 0. 1. 0. 1. 0. 1. 0. 1. 0. 1. 0. 1. 0. 1. 0. 1. 0. 1. 0. 1. 0.
    1. 0. 1. 0. 1. 0. 1. 0. 1. 0. 1. 0. 1. 0. 1. 0. 1. 0. 1. 0. 1. 0. 1.
    0. 1. 0. 1. 0. 1. 0. 1. 0. 1. 0. 1. 0. 1. 0. 1. 0. 1. 0. 1. 0. 1. 0.
    1. 0. 1. 0. 1. 0. 1. 0. 1. 0. 1. 0. 1. 0. 1. 0. 1. 0. 1. 0. 1. 0. 1.
    0. 1. 0. 1. 0. 1. 0. 1. 0. 1. 0. 1. 0. 1. 0. 1. 0. 1. 0. 1. 0. 1. 0.
    1. 0. 1. 0. 1. 0. 1. 0. 1. 0. 1. 0. 1. 0. 1. 0. 1. 0. 1. 0. 1. 0. 1.
    0. 1. 0. 1. 0. 1. 0. 1. 0. 1. 0. 1. 0. 1. 0. 1. 0. 1. 0. 1. 0. 1. 0.
    1. 0. 1. 0. 1. 0. 1. 0. 1. 0. 1. 0. 1. 0. 1. 0. 1. 0. 1. 0. 1. 0. 1.
    0. 1. 0. 1. 0. 1. 0. 1. 0. 1. 0. 1. 0. 1. 0. 1. 0. 1. 0. 1. 0. 1. 0.
    1. 0. 1. 0. 1. 0. 1. 0. 1. 0. 1. 0. 1. 0. 1. 0. 1. 0. 1. 0. 1. 0. 1.
    0. 1. 0. 1. 0. 1. 0. 1. 0. 1. 0. 1. 0. 1. 0. 1. 0. 1. 0. 1. 0. 1. 0.
    1. 0. 1. 0. 1. 0. 1. 0. 1. 0. 1. 0. 1. 0. 1. 0. 1. 0. 1. 0. 1. 0. 1.
    0. 1. 0. 1. 0. 1. 0. 1. 0. 1. 0. 1. 0. 1. 0. 1. 0. 1. 0. 1. 0. 1. 0.
    1. 0. 1. 0. 1. 0. 1. 0. 1. 0. 1. 0. 1. 0. 1. 0. 1. 0. 1. 0. 1. 0. 1.
    0. 1. 0. 1. 0. 1. 0. 1. 0. 1. 0. 1. 0. 1. 0. 1. 0. 1. 0. 1. 0. 1. 0.
    1. 0. 1. 0. 1. 0. 1. 0. 1. 0. 1. 0. 1. 0. 1. 0. 1. 0. 1. 0. 1. 0. 1.
    0. 1. 0. 1. 0. 1. 0. 1. 0. 1. 0. 1. 0. 1. 0. 1. 0. 1. 0. 1. 0. 1. 0.
    1. 0. 1. 0. 1. 0. 1. 0. 1. 0. 1. 0. 1. 0. 1. 0. 1. 0. 1. 0. 1. 0. 1.
    0. 1. 0. 1. 0. 1. 0. 1. 0. 1. 0. 1. 0. 1. 0. 1. 0. 1. 0. 1. 0. 1. 0.
    1. 0. 1. 0. 1. 0. 1. 0. 1. 0. 1. 0. 1. 0. 1. 0. 1. 0. 1. 0. 1. 0. 1.
    0. 1. 0. 1. 0. 1. 0. 1. 0. 1. 0. 1. 0. 1. 0. 1. 0. 1. 0. 1. 0. 1. 0.
    1. 0. 1. 0. 1. 0. 1. 0. 1. 0. 1. 0. 1. 0. 1. 0. 1. 0. 1. 0. 1. 0. 1.
    0. 1. 0. 1. 0. 1. 0. 1. 0. 1. 0. 1. 0. 1. 0. 1. 0. 1. 0. 1. 0. 1. 0.
    1. 0. 1. 0. 1. 0. 1. 0. 1. 0. 1. 0. 1. 0. 1. 0. 1. 0. 1. 0. 1. 0. 1.
    0. 1. 0. 1. 0. 1. 0. 1. 0. 1. 0. 1. 0. 1. 0. 1. 0. 1. 0. 1. 0. 1. 0.
    1. 0. 1. 0. 1. 0. 1. 0. 1. 0. 1. 0. 1. 0. 1. 0. 1. 0. 1. 0. 1. 0. 1.
    0. 1. 0. 1. 0. 1. 0. 1. 0. 1. 0. 1. 0. 1. 0. 1. 0. 1. 0. 1. 0. 1. 0.
    1. 0. 1. 0. 1. 0. 1. 0. 1. 0. 1. 0. 1. 0. 1. 0. 1. 0. 1. 0. 1. 0. 1.
    0. 1. 0. 1. 0. 1. 0. 1. 0. 1. 0. 1. 0. 1. 0. 1. 0. 1. 0. 1. 0. 1. 0.
    1. 0. 1. 0. 1. 0. 1. 0. 1. 0. 1. 0. 1. 0. 1. 0. 1. 0. 1. 0. 1. 0. 1.
    0. 1. 0. 1. 0. 1. 0. 1. 0. 1. 0. 1. 0. 1. 0. 1. 0. 1. 0. 1. 0. 1. 0.
    1. 0. 1. 0. 1. 0. 1. 0. 1. 0. 1. 0. 1. 0. 1. 0. 1. 0. 1. 0. 1. 0. 1.
    0. 1. 0. 1. 0. 1. 0. 1. 0. 1. 0. 1. 0. 1. 0. 1. 0. 1. 0. 1. 0. 1. 0.
    1. 0. 1. 0. 1. 0. 1. 0. 1. 0. 1. 0. 1. 0. 1. 0. 1. 0. 1. 0. 1. 0. 1.
    0. 1. 0. 1. 0. 1. 0. 1. 0. 1. 0. 1. 0. 1. 0. 1. 0. 1. 0. 1. 0. 1. 0.
    1. 0. 1. 0. 1. 0. 1. 0. 1. 0. 1. 0. 1. 0. 1. 0. 1. 0. 1. 0. 1. 0. 1.
    0. 1. 0. 1. 0. 1. 0. 1. 0. 1. 0. 1. 0. 1. 0. 1. 0. 1. 0. 1. 0. 1. 0.
    1. 0. 1. 0. 1. 0. 1. 0. 1. 0. 1. 0. 1. 0. 1. 0. 1. 0. 1. 0. 1. 0. 1.
    0. 1. 0. 1. 0. 1. 0. 1. 0. 1. 0. 1. 0. 1. 0. 1. 0. 1. 0. 1. 0. 1. 0.
    1. 0. 1. 0. 1. 0. 1. 0. 1. 0. 1. 0. 1. 0. 1. 0. 1. 0. 1. 0. 1. 0. 1.
    0. 1. 0. 1. 0. 1. 0. 1. 0. 1. 0. 1. 0. 1. 0. 1. 0. 1. 0. 1. 0. 1. 0.
    1. 0. 1. 0. 1. 0. 1. 0. 1. 0. 1. 0. 1. 0. 1. 0. 1. 0. 1. 0. 1. 0. 1.
    0. 1. 0. 1. 0. 1. 0. 1. 0. 1. 0. 1. 0. 1. 0. 1. 0. 1. 0. 1. 0. 1. 0.
    1. 0. 1. 0.</input_scale>
  <output_scale>
    1. 0. 1. 0. 1. 0. 1. 0. 1. 0. 1. 0. 1. 0. 1. 0. 1. 0. 1. 0.</output_scale>
  <inv_output_scale>
    1. 0. 1. 0. 1. 0. 1. 0. 1. 0. 1. 0. 1. 0. 1. 0. 1. 0. 1. 0.</inv_output_scale>
  <weights>
    <_>
      -2.4205505044311306e-03 1.4350020023881954e-03
      6.4644512343053386e-04 4.8633238430626955e-04
      3.7031664159510754e-04 -1.6347347408353825e-03
      -1.2924630049669246e-03 1.7709373011530339e-03
      7.3201703133273985e-04 8.4176117600069699e-04
      -2.2103004689572893e-03 2.5701767177842448e-03
      -4.6055566270852285e-04 -1.2959532608692174e-03
      1.2146696274049592e-03 1.3501453984548978e-03
      1.2006486140541952e-03 -7.9047858364686484e-04
      5.2702745043081700e-04 1.4969797402949717e-03
      1.8790840525207588e-03 -8.0425485038962896e-05
      -2.1396785201270195e-03 3.8027502702400604e-04
      5.4070604485474824e-04 1.9483366631563347e-03
      -1.1016644708152256e-03 1.9584281285844650e-03
      1.8217483075673349e-03 3.5326222553837576e-04
      -2.4665188888353635e-04 -1.5093692338370161e-03
      2.4117844440002967e-03 -1.0806241320293882e-03
      -5.1099068755931939e-04 1.1185571773340256e-03
      2.2493344026269821e-03 -5.7268389394363574e-04
      1.0421095318872201e-03 -4.2355703764858566e-04
      -6.8650041093578490e-04 -5.9625754962180889e-04
      -2.3240753129875041e-03 2.4844909353482392e-03
      -4.5812788503573639e-04 -1.3234199368159457e-03
      -1.3117890958410138e-03 -1.2971892833947409e-03
      1.9286432407072259e-03 2.4776955337968321e-03
      4.4171985651576075e-04 -6.4402036669152440e-04
      -1.9063480179137810e-04 -6.2389818836504937e-05
      -1.3084339282737141e-03 1.2973360679489304e-03
      2.4794315242453327e-03 -1.6896887634146917e-04
      2.3502187914656945e-03 -1.0219549636833831e-03
      5.1696284291902759e-04 -1.1462587045603955e-03
      1.3271121066285687e-03 2.0349253709197814e-03
      -2.0789439996259971e-04 -2.6278472881858567e-03
      -6.2137547830144280e-04 -5.6314481290179158e-04
      -5.8884356465172384e-04 1.1347947913265721e-03
      1.8158400495619021e-03 1.2053427000363397e-03
      -3.3871773124435558e-04 1.5782343508407672e-03
      2.3643370250245712e-03 1.4576160908754509e-03
      1.2876331728093708e-03 -2.2223573664666742e-03
      -1.2420822153991372e-03 1.1362399353808165e-03
      1.7100964781361510e-03 -5.0338429278175907e-04
      -3.0546605958209138e-04 4.3034523465551626e-04
      -6.4746045629228421e-04 -1.6978176696383109e-03
      -8.7716089684717268e-04 1.3099967938766299e-03
      2.5309688048468135e-03 2.2139388332729913e-03
      1.2271952495767199e-03 -1.3760202161781077e-03
      2.2781054343213652e-03 1.1187243823972766e-03
      -5.9168778960385607e-04 9.0443563466739970e-05
      1.1737100848109752e-03 1.6946094836335348e-03
      1.4360221092004171e-03 1.5096901934200362e-03
      1.2055304274241829e-03 -2.3970962661184411e-03
      1.1189925039224962e-05 2.4339091520092721e-03
      6.8246957020225065e-04 -1.9466637872566574e-03
      1.9128338834277757e-03 1.1872493140987470e-03
      -1.6671804626521374e-03 -9.2280886061430151e-04
      -9.0378716211687784e-04 1.5028303414525847e-05
      1.5830882291244469e-03 -2.0735257460117373e-03
      -1.3935019467597616e-03 4.7332415432493305e-04
      2.0341573810042654e-03 1.5534700032835617e-04
      1.6897684656261920e-04 2.0980553297524130e-03
      -1.2804791524286005e-03 6.7518982672510366e-05
      2.2473935682637883e-03 2.5395760880831206e-03
      2.0356583424529263e-03 -1.6138746992204096e-03
      -1.3125068490776859e-03 -2.4967956905256933e-04
      9.9626523151477467e-04 -2.2087560357629665e-03
      -1.1333992639877570e-03 -2.4273224828371152e-04
      7.7630524580477305e-04 -1.1719426692489087e-03
      -2.1526167959436096e-03 6.9756280721370938e-04
      -1.7932330600998283e-03 2.2032823546913132e-03
      1.6967791950376206e-03 -4.6670675607554966e-04
      1.9657832172314212e-03 4.7572160320977859e-04
      2.4196172310331802e-05 -1.8023716354937927e-03
      -5.5313062079023116e-04 -7.7810070075995657e-04
      7.8924255296625189e-04 -1.8539894772010110e-03
      5.8732082178827036e-04 -1.4364542198512952e-05
      -3.7005197919411911e-04 -1.3051920236366695e-04
      5.1243703799553502e-04 -4.5621173344591185e-04
      -2.0872351248095214e-03 1.5649932360349626e-03
      3.6981424496011366e-04 7.2743027414240555e-04
      2.5460278507528199e-03 2.5365933194760764e-03
      2.5158350421405724e-03 -2.3615546120955722e-03
      -1.2583764613015537e-03 -1.6633140146560046e-03
      -1.8493254841341802e-03 1.9246471609057961e-03
      -1.5308133917483928e-03 8.5661101783838774e-04
      1.1633602907073620e-03 1.1636892052986831e-03
      2.3952945647002172e-03 -2.2650504756487467e-03
      2.5287807167435040e-03 -1.3288081774388873e-03
      -7.6078269073251144e-04 -2.3974205932407581e-03
      -6.1567097556772905e-04 -2.4550451659969101e-03
      -2.0194665297914079e-03 -4.5393484599494074e-04
      -2.4637757559718390e-03 -1.7327611006138013e-03
      -3.2378306990859938e-04 1.6180144935055938e-04
      -1.2961637534946498e-03 -1.5411780484630919e-03
      -2.1537375971565132e-03 1.2317466357031616e-04
      1.5599706515948475e-03 1.1229033724529732e-03
      1.5818133332635399e-03 -1.9540008608226636e-03
      -2.2558202760087150e-03 1.9116751418444991e-03
      8.3133094378275629e-04 -2.2891370683491056e-03
      2.4031849968570462e-03 -1.3613195690988339e-04
      2.4622165196933540e-03 2.2469265872351483e-03
      2.4494425977865169e-03 -2.9295322001577306e-04
      1.6263391547587558e-03 -1.6648528357311662e-03
      1.8727763036764215e-03 1.8520790954860086e-03
      6.4534836527017534e-04 -1.7195487636912942e-03
      -4.6828258247767459e-04 -6.0614827423209833e-04
      4.4961056154226053e-04 -2.0485627850883813e-03
      2.2165655611570000e-03 -1.6492413479823576e-03
      1.4803770786422232e-04 -3.0716332438940645e-04
      1.2275297819493301e-03 -7.9261346353845356e-04
      -8.7650038045191661e-04 1.7467783934365863e-03
      2.1873663002375428e-03 1.7071729699708561e-03
      1.9790759716433563e-05 -1.6041026222094910e-03
      1.5395465515133505e-03 -2.2511662081614524e-05
      1.5536478704625903e-03 1.4058071744813795e-03
      1.2250369605975531e-04 5.7198692410962270e-05
      -2.0377801436181173e-03 -4.7540037857234395e-04
      2.5022676434635475e-03 3.3698534705258685e-04
      -4.5652052671102329e-04 -6.4871204061360674e-04
      -1.4368690111675427e-03 -1.8460580862454084e-03
      1.6788573759091647e-03 -2.3169259312089808e-05
      -2.2164555538606943e-03 5.4420167816968225e-05
      -1.8052510358768502e-03 1.9240928100986337e-03
      -2.1490698847570181e-03 -2.4642684111729599e-04
      -8.7907366447753643e-04 4.6436471972906442e-04
      -1.1994013800273768e-06 -2.1401963432074326e-03
      -6.8970606255694563e-04 3.8017699352059709e-04
      -2.0592862362326545e-03 -2.5428084608797009e-03
      1.4869682197062102e-03 -1.3405091543033452e-03
      1.6968982477163824e-03 1.7704015934604858e-03
      6.4125698621222971e-04 -1.9799294755912370e-03
      -2.4456948771803062e-03 4.5459415416279625e-04
      1.2540231720655629e-03 -9.8573991260705852e-04
      -5.0831974461482338e-04 1.4804685750113480e-03
      1.4618755857651791e-03 5.2373276336358714e-04
      1.0008846415550832e-03 1.0255819283968911e-03
      5.8217573122884699e-04 -1.4314002514243861e-03
      2.4823145945763680e-03 1.3654473545955429e-03
      2.1318104993299112e-03 -2.0792807229852582e-03
      1.4158614666938980e-03 -1.4027274169071838e-03
      -2.2045368648913638e-03 1.4152284822082494e-03
      2.0776017304350481e-03 1.8025744156330470e-03
      9.9866222355474610e-04 -2.3696410317319218e-03
      -2.2997048297506593e-03 -4.1220031205319632e-04
      1.3155909968711251e-03 -1.8512591218222370e-03
      7.2309700106338855e-04 -6.7249481941697139e-04
      -9.3880677162632526e-04 5.4085995938004511e-06
      -1.2568627966251663e-03 2.3540797354095421e-03
      1.9258483297359360e-04 2.0414061453407719e-03
      -5.5441016609146411e-05 1.6725815764287602e-03
      -1.5141144667079403e-03 -8.0722320790434969e-04
      -1.6444973995184962e-03 -4.3799719571041755e-05
      -1.9234802182087976e-03 1.9955441270866278e-03
      7.8379081026646918e-04 -6.4226866380196466e-04
      -2.2320138745057973e-03 1.1573243959949113e-03
      -1.6460949203925604e-03 -2.0755162909711173e-03
      -1.2109553474629624e-03 -9.6223127535712103e-04
      -2.4556823726113244e-03 -2.0884822605287236e-03
      8.3647399913376011e-04 -1.1715070707087234e-03
      2.4278281631352622e-04 1.1581771796937818e-03
      -4.0330837013380296e-04 1.5824098313722316e-03
      -1.7101300713433915e-03 9.8356730709377085e-04
      1.6734374921022789e-03 -2.1473635452652425e-03
      -1.1191184655680651e-03 -2.3292075670681387e-04
      -3.0185425824921211e-04 -2.4501754057127340e-03
      1.5519678781633105e-03 1.7895093487173177e-03
      2.2824508221209179e-03 -6.9918115323958703e-04
      2.0545364196580111e-03 -2.3435375089882133e-03
      -1.8624521674573851e-03 -7.1530963808762377e-04
      1.1792094761575835e-03 1.1042226654290843e-04
      -2.2926958353979734e-03 1.0962807321928641e-03
      1.6831733648141063e-03 1.6013711343898489e-03
      -1.9381831863357066e-03 -2.3382058752455916e-03
      -3.0810437302436147e-04 -1.8981676633092390e-03
      -2.3042132699242283e-04 -2.0610169473894739e-03
      2.5842750669696794e-03 1.4309275739700636e-03
      1.5143113665246092e-03 9.0615531771475757e-04
      -1.3587519638244719e-03 2.4651313105914078e-03
      1.5240451687102117e-03 -2.4282771561775010e-03
      1.6318612250107445e-03 3.3842549473152072e-04
      3.0722036925785284e-04 -7.3227304338553559e-04
      1.9480833401877196e-03 4.9223404527388710e-04
      -2.5238726703305072e-03 -1.3079980521101626e-03
      -2.4689822304553876e-03 2.2754617926418891e-03
      -1.0526081234787173e-03 -3.6487051617187715e-04
      7.4661993505201955e-04 8.8176955885737565e-05
      1.4204778018725263e-04 2.2194126952998438e-03
      -1.1465519056710516e-03 3.3471743796456343e-04
      -1.3690072539198063e-04 -1.5037947783071259e-03
      -1.2131881101341631e-03 -6.5869390660468262e-04
      2.5136147601643034e-03 6.3911516776470122e-04
      -6.0170081568829549e-04 -1.5975527086024247e-03
      -1.5081125850617896e-03 -1.2483711438428058e-03
      1.6958192197941697e-03 -1.6874047182942665e-03
      2.0406328032924535e-03 5.4109352823225913e-04
      2.3572418043326508e-03 -6.6461234673784175e-04
      -2.2344712809501104e-03 1.7370420343524328e-03
      -2.4953692649923817e-03 -2.1902626961608791e-03
      -1.9654842893343217e-03 1.1293036224160132e-03
      -8.5480809002626572e-04 7.9639741538591817e-04
      -1.9809337215259256e-03 -2.4630292053501096e-03
      1.2599241735902565e-03 8.3371238203419936e-06
      2.1592955624610472e-03 2.1999471951598660e-03
      1.1908400715213755e-03 -1.1157910434807460e-03
      -2.4904038560582875e-04 1.9828792170721488e-03
      -1.3476219811589117e-03 1.6144009070914120e-03
      4.8018778456202432e-04 2.3727915737910585e-03
      -2.1034541822378084e-03 -2.1415394661600902e-03
      -2.0942570282149673e-04 -1.2922274163676011e-04
      -9.7633837759629482e-04 1.0675545593480118e-03
      2.4247779846677266e-03 1.6104579019445920e-03
      -1.3476482375602335e-03 1.3548378242118010e-03
      -1.7252890213117569e-03 -9.4683011213765925e-04
      1.6393767554926939e-03 -1.6294771394427603e-03
      2.5219725353717230e-03 1.6091874831158180e-03
      1.7540571965168929e-03 -1.3138946119233877e-03
      -1.3818338026690637e-03 1.2919432192977096e-03
      5.2065326746362215e-04 -1.4259099601866515e-03
      1.4388457219316941e-03 2.1229797614214863e-03
      2.3265137146770715e-03 -9.4943249687301544e-04
      -2.2401223218766913e-03 -1.0299216535163650e-03
      -2.3407606355034072e-03 -1.5261092614926182e-03
      -2.3265652824038833e-03 4.7096330133939405e-04
      -2.2141228230922556e-03 -1.0368395841838908e-03
      -2.3902130000099330e-03 -6.7511542148368335e-04
      -1.2864807580300723e-03 -7.2476447770544576e-04
      -2.1492792608209695e-03 -1.8627811264475247e-04
      -2.3201687831470703e-03 1.1290287380168712e-03
      -1.8669768818578415e-03 2.2362722195235735e-03
      8.0332181871714059e-04 -2.6364440904096234e-04
      -1.0969783726154777e-03 -1.2612401614405214e-03
      -2.3146101162683252e-03 1.8099731669868398e-03
      2.3059498799041142e-04 -1.4460718159596216e-03
      -4.4575466122235706e-04 -9.1976276145972413e-04
      -3.3430557980620768e-04 1.3008530129872023e-03
      -6.2276622778126517e-04 9.5453722034921510e-04
      -2.1125038787852216e-03 -2.0708700987723499e-03
      1.3896253439127217e-03 -1.6220540185531104e-03
      -6.1094991801359757e-05 -2.4033101651940400e-03
      2.0200620487014565e-03 1.3401661262286558e-03
      1.7378402962274001e-03 1.2622001108558072e-03
      -1.5179642873671131e-03 -8.7803738569985153e-04
      4.3472526194037012e-04 5.6108848391255299e-04
      8.1344258797895409e-04 -3.0913411210118117e-04
      -1.3031592582726976e-03 8.9551951712634685e-04
      1.3912398855951233e-03 1.0562222524353837e-03
      -2.4191583006407012e-04 -1.3910501813282044e-03
      -1.1338867673053499e-03 8.0296326768569399e-04
      1.8205861206110191e-04 1.5261867539824105e-03
      -2.3428463568896710e-03 -1.2240567201625651e-03
      -9.6631872044087251e-04 2.6675942656919824e-04
      -8.5755558735715973e-04 2.1016492322200953e-03
      -1.2781205696404214e-03 3.2698463444199926e-04
      -5.4219878123946041e-04 -2.4234602196634945e-03
      -1.5195794717596999e-04 -1.1159745783324152e-04
      -1.2754761472135786e-03 1.8740413463363139e-03
      7.1723437773865543e-05 7.0681783326243908e-04
      6.2635235000914981e-05 -1.9164362505714274e-03
      1.7087481195290726e-03 -2.1696413633305617e-03
      -2.9219060401943685e-04 1.1382689203266938e-03
      -1.1539536179386771e-03 -2.0406751141909523e-03
      2.6531530683694866e-04 -1.8971258327623304e-03
      -7.3802756998401673e-04 -5.6600145153860144e-06
      -2.3373421163277400e-03 6.1385090351922839e-04
      -2.1614650108792610e-03 1.7154924714512978e-03
      -3.2312846534339213e-04 2.1057069694721407e-03
      -3.7232250150414617e-04 1.8566350946428575e-03
      2.2811978958039861e-03 -1.0426359743104729e-03
      1.0763833965110746e-03 -2.4059253182243359e-03
      1.9347237773982432e-04 2.3471026210998363e-03
      5.9245486328478379e-04 -1.2721968826263702e-03
      1.8520543735109361e-03 1.4466576111475499e-03
      -1.0408105381045029e-03 -2.4429848070626158e-04
      2.1278611551909612e-03 1.1052344849717610e-03
      9.1089933745043311e-04 3.7423707290461141e-04
      1.0766520363299718e-03 -5.4924400659971066e-05
      1.4747365807939088e-03 -2.3342038998617810e-03
      9.3863755278867191e-04 2.0868864267757263e-03
      1.4353976223345942e-03 8.0670722930146273e-05
      -6.6601619693575488e-05 -1.1728615964104660e-03
      1.2641911193869699e-03 1.4600304651329560e-03
      2.4609058252736652e-03 1.2192572683549512e-03
      -1.4261947267697258e-03 6.6948891517977537e-04
      -1.4088055714047633e-03 2.1666629295697421e-03
      1.8462668773158160e-03 -1.5914993803691688e-03
      6.7238500974824689e-05 -1.0998054362592301e-03
      -1.1244515633596838e-03 2.2465617770209213e-03
      -1.3860609169086692e-03 8.8414290736526352e-04
      1.2418506404166746e-03 -1.6415465303808944e-03
      2.4166337702832010e-03 -2.1111835766581674e-03
      2.2585166705138405e-03 1.5041022026570572e-03
      -1.9402429626209854e-04 1.5635912823090561e-03
      1.0527846433361755e-03 -2.4169009030789610e-03
      -1.3854918430142484e-03 1.1361739990135213e-03
      -1.2725678100463907e-03 -2.2918120002442043e-04
      4.5706989180679573e-04 -1.2491618415399546e-03
      7.7696310751877891e-04 1.6452238744204136e-03
      -1.7248358245805401e-04 -2.0240745936171011e-03
      1.3772838039329447e-03 1.4563748305047501e-03
      -8.9460343635394412e-06 -8.8048899602689618e-04
      2.3318587350374207e-03 2.2810023990172744e-03
      2.0083151546723349e-03 1.8272778278342235e-03
      6.9828899729658725e-04 5.1735722337835604e-04
      5.1785538133258347e-04 -2.2195795021714851e-03
      -1.9206163588961576e-03 -2.3564656836951659e-03
      8.2126803989862628e-04 -4.2084850458190705e-04
      -2.3587344326903787e-03 9.1357249180923600e-04
      1.9292145995443890e-03 -2.1951551430501085e-03
      -8.6467205170623806e-04 2.0450267767225458e-03
      -1.1554535384737091e-03 1.8222234801288639e-04
      -1.0240729083307129e-03 -2.4259810056627643e-03
      1.2909672784429216e-03 -1.4727425877345641e-03
      9.8566882800872960e-04 -1.7897816937535529e-03
      -1.5935451973514072e-03 -1.0374744319149859e-04
      -2.0618520102469022e-03 6.5600387690815064e-04
      -1.9672737562515623e-04 2.1460499370567288e-03
      1.1049065731680993e-03 -1.1124302738558074e-03
      -2.4493817607904389e-03 -1.9128838029790416e-05
      1.5226777457462066e-03 4.8162380028477479e-04
      -2.2248485088827374e-03 -1.3337644822310629e-03
      -1.2570264942768554e-03 -1.3471148801908305e-03
      -1.9327819353228107e-03 -8.3674110324846740e-04
      1.6038869237645001e-03 -2.3718096809756768e-03
      -2.3197604221525925e-03 2.1373903023772325e-03
      1.7335641348217687e-03 -5.4834811514299929e-05
      1.8489978706990979e-03 -5.9709966640714032e-04
      -7.5408931194511839e-04 -2.6701187113072674e-04
      -1.6205887633824940e-03 2.0358579351147518e-05
      1.4710876347898301e-03 -4.0469844855370448e-04
      -1.2499106254333717e-03 -2.0022857787331330e-03
      -1.6101205454131296e-03 2.1193049414988722e-03
      2.8467446622635289e-04 7.1301419407129364e-06
      -1.9520772735413894e-03 9.6478133724800161e-04
      1.6748590481547787e-04 -1.8426482634378873e-03
      -2.5044088343399019e-03 2.1328752650343042e-03
      9.7940098225204691e-04 -1.1246740974158588e-03
      -1.2147735505715627e-04 -1.9877965366416608e-03
      8.3164271816482465e-04 2.0051486555808411e-04
      1.0971990663864980e-03 1.7896879019800433e-03
      -1.1643265276362258e-03 1.4704769451938369e-03
      5.5558269047500654e-05 1.6323857113135344e-03
      2.4622543811438904e-03 2.1903342252888904e-03
      1.7804830544741793e-03 -2.3797625596339120e-04
      -8.2481057183995520e-04 -2.0514012269355376e-03
      -2.4228625125908812e-03 -6.5185124875874608e-04
      7.4441134276044952e-04 3.9274501889417193e-04
      -5.9630297485111491e-06 -2.0094444388413569e-03
      1.2786259815994892e-03 1.8483514612749267e-03
      1.0924476856528152e-03 1.3703479507249977e-03
      -2.2618816221256842e-03 -2.3716226246977214e-03
      -1.9177022292146152e-03 9.0703075697015916e-04
      6.5955289830785821e-04 -2.1405205958201765e-03
      -7.2486270088028117e-04 -1.0917630964900787e-03
      -1.9541590888534077e-03 4.5156899081024321e-04
      5.4002040559780588e-04 2.2391480353225472e-03
      -1.6010439034394876e-03 -1.1174760230132437e-03
      -1.4513431825391224e-03 -1.6545687068442430e-03
      1.1090023763992929e-04 2.1829173709937331e-03
      -1.2808192632084585e-05 2.1697119832870169e-03
      -7.6337168974958383e-04 2.2633557524947543e-03
      4.0524618451985208e-05 5.4523635759113750e-05
      -1.8022535156227005e-03 -1.8029027902623019e-03
      -2.8948240014718719e-03 2.3094191433887679e-03
      -7.0206186973587319e-04 1.1137213533368067e-03
      -1.8046039333369473e-03 2.2711859128771213e-03
      1.1284075736850171e-03 -2.2380107493431846e-03
      -8.6589769397975248e-04 3.5547286195839031e-04
      5.8502117700922891e-04 1.3622233888131430e-03
      -6.8367232280203347e-03 8.3160048870463204e-04
      2.7253245756466526e-03 -1.2315613937446325e-03
      1.9147574339735515e-03 -2.4723277205064547e-03
      2.0007682069238968e-03 8.0980993770407713e-04
      -1.5398566717683365e-03 -1.1381987950974911e-03
      -1.3667239158337940e-03 -9.5748450566985862e-04
      -2.8584629574806940e-04 9.9806063184599524e-03
      1.3630036589395371e-03 -5.3031516149054962e-03
      -3.1370321071772875e-03 -1.5453399737846692e-03
      -1.6439618697966271e-03 -1.5557061194448050e-04
      -2.0383927463797080e-04 -1.6257454621515408e-03
      -2.4152613433393688e-03 2.1172778642004741e-03
      -5.2126748844029771e-04 -1.5570488571836082e-04
      1.1668829718135104e-04 -1.6830068824187115e-02
      -2.2238606642869582e-03 1.9889991433986258e-03
      2.7964240574201066e-04 -1.4104475852842757e-03
      1.8839857682545824e-04 6.0383808790360517e-04
      4.8614208116494034e-04 2.0348145823353195e-03
      9.3329181915980839e-04 -1.2161374321347936e-03
      -3.4438678406760481e-04 2.0804580501872619e-02
      1.7296220284917721e-04 -2.4315583734365017e-03
      9.3217799803849925e-03 -2.4008475894448347e-03
      3.2130090405982662e-04 7.9339337348289900e-03
      -1.5678000200837893e-03 3.2499670015870584e-04
      -4.2970721079791472e-03 1.2650155649386638e-03
      -2.4717353772811018e-03 -5.9166853078185407e-04
      1.4533745528927308e-03 2.4550332294736624e-03
      -2.1621226225169623e-03 -3.3835117458577094e-04
      -1.8193037530624002e-03 2.0713079147290604e-03
      5.5968549757041538e-03 1.7580310234800855e-03
      -1.3532758685939467e-02 -1.1845169955301900e-03
      6.3804549566051916e-03 1.0639198527350876e-03
      -2.2298627001225927e-03 1.4687100793215908e-03
      3.0996337690639765e-04 1.5469973874713268e-03
      1.9624655203385158e-03 -5.0461735636313470e-04
      -2.0445656892873658e-03 -2.4180128389856828e-03
      -2.5444258399465441e-03 2.1385792345512491e-02
      -2.1134658145849630e-03 -8.5576285474021178e-03
      -6.0767780415358439e-03 8.1136229422812596e-04
      -1.5021455092470285e-03 5.4537860712273283e-03
      2.3018684667038838e-03 -1.9867469612785504e-03
      -1.2595829650158946e-03 -1.6370821034742725e-03
      -2.3074328450620992e-03 -2.0908172963969799e-03
      4.1573588805183430e-03 -3.4887511460138521e-02
      -2.1540334403737475e-03 -5.5978148648112575e-04
      2.9876483555325486e-03 -1.9093663656113214e-03
      1.1924091749802369e-03 -2.6984336648456235e-03
      -7.8218876385478028e-04 -2.4926224593098878e-03
      3.2944793860409751e-04 1.4211492196126532e-03
      1.0425471252220964e-03 4.2547058766058236e-02
      -1.0377845858353489e-03 -7.9856106819070297e-03
      1.5155243097905046e-02 8.6363423303677668e-04
      -3.2420616796304891e-03 1.5027921390875628e-02
      -1.1086974664893437e-03 1.7937378688461137e-03
      9.3871652773944115e-04 -1.1994541169474851e-03
      -2.0800317744205351e-03 -1.1363851054190118e-03
      2.4590577986745984e-03 1.3916374512774980e-03
      -9.9392522387526066e-04 6.4715818452088363e-05
      -9.5325902669629614e-04 1.0356298490108357e-03
      -1.1934350705553431e-03 5.8160866261148061e-04
      1.9531249485929517e-03 -2.0153761092171177e-03
      9.5228200918174070e-04 -8.3715527016619466e-04
      -1.6022445759118382e-03 6.8913534011312311e-04
      6.6774597421469207e-04 2.4058445922797668e-04
      -5.0853323089520674e-04 -1.2605767383994425e-03
      -1.0591060981343103e-03 -1.1909273321076925e-03
      -1.5154493768532817e-03 -4.0635469190494623e-05
      6.6723815200019998e-04 -1.4912905066507955e-03
      -5.3413747186477703e-04 2.9922608836068003e-04
      -1.1221235526313663e-03 -1.7180297473019532e-03
      1.9080361478728634e-03 -1.5101904394945436e-03
      9.7531028792164753e-04 2.1345407399199327e-04
      -5.5790911630293916e-04 1.8419719020724098e-03
      -7.7210073230880305e-05 -2.1392484220296044e-04
      7.3121882008917295e-04 1.4587546322097898e-03
      1.4919431851830671e-04 2.5298657159556349e-04
      1.2305720864605658e-03 -8.2302008804021178e-04
      -2.2964309403993494e-03 -1.4854619247535387e-03
      -8.3467497811108105e-04 2.1765443109575703e-03
      1.1021378912804249e-03 -1.6051479318655883e-03
      -1.3083966268047571e-03 1.3541696171414988e-03
      -1.4857796445638045e-03 -2.4078371186474759e-03
      1.4720169800230361e-03 -6.2083284798216277e-04
      -1.7889213593642967e-03 5.3514038234396349e-04
      1.2226405636664550e-03 1.4112366632656932e-03
      2.1091253766904886e-03 1.5232897425907570e-04
      1.2108500001594003e-03 -9.7270113575916267e-04
      1.3742894836983712e-03 1.2597384831138108e-04
      1.3079439976260425e-03 1.1024021870388509e-03
      1.8399401028900966e-03 -2.4705078353378838e-03
      1.9188922315539869e-03 1.0468733146152939e-03
      1.3854253296238627e-03 2.4588842911159566e-03
      -2.2436619306374934e-03 1.4814018719096988e-03
      1.7945064773956164e-04 -6.1983325145056434e-04
      2.5299265487870462e-03 -1.1243539262652295e-03
      -1.1458728628329037e-04 1.6598705921713175e-03
      9.4121785797203212e-04 7.5801303014967278e-04
      -6.2324520924679353e-04 -1.7452600910619629e-03
      1.5114897778850721e-03 2.4259519795841794e-03
      -1.5700877861498125e-03 -1.3859790193008427e-03
      1.3374766642915996e-03 1.1494631881934045e-03
      1.7123056578790711e-04 -2.2316262017480092e-04
      1.1583787493032488e-04 -1.7831337156869608e-03
      2.4216465315581338e-03 1.8344962437940172e-03
      -2.3202826442420038e-03 -2.1970788871474712e-03
      -1.1031485029963258e-03 -1.3968749936293793e-03
      3.9074261565037575e-04 1.2818240791198764e-03
      -1.0643186536642400e-03 1.0628553075419456e-03
      -1.1178863131161175e-03 2.3859972823287931e-03
      7.0988539966693187e-04 -2.0327749362188154e-04
      1.0839397465071544e-03 1.7202799422454216e-03
      -1.7403573820509520e-03 2.4735748164897318e-03
      -1.1228699445112868e-03 -2.3761321550724236e-03
      -1.4251225798383059e-03 -1.5890473498686717e-03
      -8.0762309645902435e-05 -1.3598342427780033e-03
      -2.3329599160474835e-04 2.1944935225832502e-03
      -3.1341928430198013e-04 -2.1922263295850375e-03
      9.7071599040508046e-04 -6.0095353360470219e-04
      -1.0077192213966163e-03 -1.6419727606589401e-03
      5.0062523016231519e-04 -7.9409760698395627e-04
      2.3268245151482894e-03 -2.0468511316547454e-03
      9.2268684687723699e-04 -1.4314526758790267e-03
      -8.4419261471443789e-04 -1.1969432282164984e-03
      1.8446382604288426e-03 2.3847812536233358e-03
      5.5158385214071511e-04 -2.0539159806931984e-03
      -2.2647566972810321e-03 -1.2628191512540651e-03
      1.1407262941905308e-03 2.1487395153413848e-03
      -4.7508851702659301e-04 1.2692018152679002e-03
      -2.4660597771764279e-03 -2.0416373966926577e-03
      2.2137754427938965e-03 1.3502825186573373e-03
      1.4719360545103945e-03 -2.3465435388210190e-03
      -1.5276287578448759e-03 -2.5793101753537207e-03
      -5.1924723391230166e-04 1.5539785870332219e-03
      -2.4201102895537148e-03 1.7466410681558149e-03
      6.3910461728594321e-04 -1.3580609603487308e-03
      4.2472001109238287e-05 1.8645721533267363e-04
      8.4512351475353009e-04 1.1142599147828771e-03
      -1.3356634894867308e-03 -3.6212014051385967e-04
      -2.2966934939481890e-03 1.9719099116868076e-03
      2.2489214812416091e-03 -9.8434573254274800e-04
      -2.3646822055203901e-03 -5.0097484966022668e-04
      4.6597902949478768e-04 -1.0127771509833752e-03
      -1.4790635154697791e-03 -3.6178672657465933e-04
      -7.5506563896843071e-05 1.4521507289266069e-03
      1.8574904917527992e-04 -1.0509141955589495e-03
      -9.3023880985647160e-04 -2.0139141162951579e-03
      -1.4626053733747875e-03 1.7804692234739147e-03
      -1.0704200659513896e-03 -9.8626957586166793e-04
      -1.7319874843055476e-03 7.8345758797214839e-04
      5.5136955996922411e-04 1.3119419476491814e-03
      9.5378771390859142e-04 -1.1917524974114041e-03
      1.9075631831270462e-03 2.1677159175003818e-03
      -1.7479292680582246e-03 2.3388175365901915e-03
      -1.4414672328941158e-03 2.4868870447708391e-03
      -3.6368173046095998e-04 -2.1650288096681865e-03
      3.6176008094722134e-04 -1.9873334752539616e-03
      -2.5534401780306368e-03 -1.2356369717150067e-03
      1.5754160199984261e-03 2.0326737549197061e-04
      2.0704191576747253e-03 2.4541206103737821e-03
      -1.1129360633313013e-04 -2.5815101940882126e-04
      9.7799013941220810e-04 -2.1934174091139975e-03
      -1.5716432145992126e-04 2.4343539637844123e-03
      -5.6925812267788402e-04 -1.1063926488086289e-03
      -1.0589620961131262e-03 9.3560769119807239e-04
      2.0668680765194825e-03 1.5844745591952060e-03
      -5.6650202600989918e-04 -2.0296746044154049e-03
      -5.7459713064450134e-04 2.4229139811697362e-03
      -9.7908102784597805e-04 -1.4044535760038119e-03
      5.3885818634431710e-05 7.3332943086578219e-04
      1.2987625377323380e-03 9.4696911404761541e-04
      1.6466375797577881e-03 1.5725843182727210e-03
      1.2627209731022745e-03 3.6626579495774872e-04
      -4.5439681165526289e-04 -7.5170349193030416e-04
      -1.1418663523841770e-03 -2.1339647616595503e-04
      1.2701827318840997e-03 2.4734774443696617e-03
      -1.8911428880156952e-03 2.4099490304432180e-03
      3.2248439323025722e-04 1.6721258845070407e-03
      7.2651704104675219e-05 5.5528402105477258e-04
      9.2241838286681154e-04 1.7547111551820601e-03
      -2.2266706500697299e-03 -1.6430416118774060e-03
      1.8033468382288123e-04 -2.0843847442644564e-04
      -9.1860680700187210e-04 -8.6621657482981054e-04
      -8.1895492432965339e-04 -2.2049529798704726e-03
      1.3352612924400760e-03 1.6325020633279231e-04
      -2.1770229739273995e-03 7.9891202548756045e-05
      -8.9293859437049197e-04 1.4952653041044913e-03
      8.3427153992725767e-04 1.8048090245484272e-03
      -1.1093135314631240e-03 2.2661017572407974e-03
      4.3245556051478019e-05 1.3295472811210040e-03
      -2.1025999124509821e-03 1.3876304967442748e-03
      -8.6437040254888707e-04 1.7546767166741284e-03
      -1.0196611202178757e-05 2.0805180527656121e-03
      -2.1240051155563427e-03 -3.3889322781723561e-04
      -1.4053008882247222e-03 -1.0435218573196759e-03
      -2.8128867928078720e-04 -1.2365144982238170e-03
      1.4608490312668320e-03 1.1721918355638073e-03
      -1.2737935530180628e-03 -3.2290518144118354e-04
      -1.6484498155832970e-03 -1.3144913423770244e-03
      1.5797121248415252e-03 -1.4503311266870185e-03
      5.2101370597676172e-04 -1.0419710774156651e-03
      1.1597451503213055e-03 -3.2361234055518283e-04
      1.4039471577146864e-04 2.4231037317322575e-03
      1.5250651063357318e-03 -2.1825908859228189e-03
      -8.2234402191242199e-04 9.3508217411096138e-04
      -1.4387910677909120e-03 -1.2009279951206134e-03
      -1.8911334307008200e-03 2.0295048130297708e-03
      9.1404616238633253e-04 1.3770455659699375e-03
      2.6179926835170675e-04 1.2516337206673928e-03
      -2.5572184268598773e-03 2.1316231274732147e-03
      -1.7691190938068861e-03 1.9249163083295308e-03
      -3.7769086036333431e-04 2.3876478479126348e-03
      -4.8083947152634650e-04 -1.0189572123142279e-03
      1.7052339082915119e-03 -4.5050015421954501e-04
      -6.6459658968212262e-04 -1.8413322417457757e-03
      1.2613944070667179e-03 1.2632941157503920e-03
      -1.4124936597683718e-03 -8.9613520698742562e-04
      6.0413164084492882e-04 -1.9650355648477170e-04
      1.0160829896719156e-03 -2.4070053431890530e-03
      -2.2609067757711310e-03 -2.0269498730159032e-03
      1.8859647255618035e-03 1.1267463584633795e-03
      -1.2858599667850638e-03 1.6713688677533758e-03
      3.4171742673265031e-04 -2.4029998431904323e-03
      -9.6049734375318785e-04 -4.2551140955347707e-04
      2.5046342990979512e-03 1.6783770778336414e-03
      7.8994315564491708e-04 1.6290273196520586e-03
      -2.0087882764055964e-03 -1.6401430563460352e-03
      1.2355150646093638e-03 4.1181915109193379e-04
      -2.9269735946615917e-04 1.1485697639086623e-03
      -2.0122025892170196e-03 -2.0728968631044220e-03
      -2.0750501169170626e-03 1.0093765158757000e-03
      -1.1585408728291031e-03 2.0012345201183995e-03
      2.0586124039562448e-03 2.9702260988817168e-05
      -4.5384694992691506e-04 2.0804423054707668e-03
      1.5090325222826991e-03 -1.0333204742517255e-03
      -1.6503136715924442e-03 1.6689392836078175e-03
      -1.6068428522242240e-03 -2.4106649452935009e-03
      -1.2659648427497975e-03 2.0602601999719326e-03
      -1.9883357501018504e-03 2.0844527997869783e-04
      2.2036150030782064e-03 -8.8362695702547686e-04
      1.1331568693295968e-03 -1.2024805787642652e-03
      1.0833194799334566e-03 2.3382365655958935e-03
      5.1165398279661670e-04 2.3542631195958927e-04
      2.3471684311650824e-04 1.0413264733754625e-03
      -1.4899343009217678e-03 1.3227397469034699e-03
      6.0509600043753516e-04 9.6656919517429468e-06
      1.5921621588830086e-03 2.5547347639614116e-04
      -1.5550021444752222e-04 1.2054542845117944e-03
      -9.5831635969185363e-04 1.1488956588517223e-03
      2.4901501415812988e-03 1.9337027925947207e-04
      -6.2211053737503178e-04 -2.5236714721288082e-03
      -2.2322898162581911e-04 9.4709822541409186e-04
      9.7068561360191786e-04 -8.2865082951601274e-04
      -2.1667452359576053e-03 -1.5587387064370842e-03
      8.8465264090919658e-04 -1.0779697101927421e-03
      -7.2187597768393194e-04 -1.6054686257832599e-03
      2.0209090383750006e-03 1.8853689518509039e-04
      -1.0231516670711992e-03 1.7099728820990732e-04
      -2.0002840726444180e-03 6.4000171657261934e-04
      1.6399830076330049e-04 -5.4402086059057184e-05
      1.8729036417300723e-03 -2.6027525223577810e-03
      3.7576275984017785e-05 -1.9272865374942308e-03
      1.0271071783960551e-03 -2.0620039735158458e-03
      1.4352827284977525e-03 7.9867339495599159e-04
      -1.5437401534611830e-03 2.2109606494683902e-03
      1.0666236360184031e-03 -1.4834960940666559e-03
      1.4363143055977419e-03 1.3923696595030850e-03
      4.6877913736210726e-04 4.2987526865401025e-04
      -5.3886662790430899e-04 1.6508688094830834e-03
      4.2290509296556537e-04 8.4493920053704558e-04
      -7.7011026929990319e-04 8.4793023112072542e-04
      -2.1772360858676012e-03 6.1051537726491707e-04
      -1.4661096866212086e-03 -1.7740472444217150e-03
      -2.2053593383104132e-03 4.7894187843006694e-06
      1.6287842876917865e-03 1.6767201311558789e-03
      -6.5083398163813002e-04 9.0189930509300160e-04
      3.1349633314703152e-04 9.3766422124337892e-04
      1.9752715812774760e-03 -2.8919609842576187e-04
      1.1444969838403081e-03 5.8926951014309922e-04
      7.3321607195635209e-04 -7.7716584845973781e-04
      -1.8495689427658146e-03 1.9628003863483862e-03
      -2.2787819399448408e-03 1.8283579425997869e-03
      -2.2907861150378442e-03 3.0530138880137912e-04
      1.8503379021893561e-03 -2.4562186549541413e-03
      -1.1838822604070571e-03 9.5077091792158453e-04
      9.8654176891203849e-04 1.0259398386727840e-04
      -1.8153435727086213e-03 2.4478749055700708e-03
      -1.3823167831109305e-03 -1.2153559146723012e-03
      7.2441251423404685e-05 1.3216966512445713e-03
      1.3055688292031963e-03 -2.2178552577706238e-03
      3.0672795884285670e-04 2.6158655507953726e-03
      -2.2682377218739133e-03 -1.4726316589922723e-03
      -3.8280797581297457e-04 -2.2449449417732141e-03
      1.4864426662689930e-03 1.3439731825773185e-03
      -7.3167802574093525e-04 -1.1646166407393720e-03
      -2.2398069979535857e-03 -1.0884989760433362e-04
      -1.7851812567111682e-03 1.3167277700927316e-04
      1.7826811152396780e-03 1.5485556607405765e-03
      1.9613091057322212e-03 2.0575610765562803e-03
      6.2398217017577487e-04 -2.5784920272894671e-03
      -1.4561855906251608e-03 2.8785345150918689e-04
      -1.9653804388095474e-03 1.4239450773204548e-03
      -2.2259288895171868e-03 -4.1476607599582894e-04
      1.7857352984811735e-03 -2.3822077352201928e-03
      -1.3739077347898034e-03 -2.1833072766807961e-03
      2.5360698871394497e-03 -2.6214417555936524e-04
      1.7594466465525838e-04 1.4184428793935281e-03
      2.5033700418833054e-03 5.9329730809928568e-04
      -2.4232909580813289e-03 -9.8526370778945786e-06
      -2.1130757823219367e-03 -4.3859206284531556e-04
      -1.5915189515687343e-03 -2.1656547386723467e-03
      -4.0622222601552424e-05 1.0904265135440220e-03
      2.7876444450934690e-04 2.3949124405510339e-03
      2.9406380654973358e-04 -6.0845565368443551e-04
      2.3618922761447897e-03 1.4279646005436757e-03
      -8.2118076216016183e-04 2.2251270640099652e-04
      -2.4457736441528977e-04 -1.3015018993245253e-03
      -2.3842745284145014e-03 -8.5660732088227256e-05
      -1.4368777506213487e-03 -4.2880709073151840e-04
      -9.3399347528132551e-04 -9.5815993299637817e-04
      -2.7702287203834527e-04 -1.3919522037444975e-03
      5.5981973741046844e-04 1.2592437520365343e-03
      3.9861550429308939e-04 1.4830090444329723e-03
      1.0275557454611764e-03 -2.0087718358453841e-03
      -1.9499373599970932e-03 -6.7936107708332580e-04
      -1.8006463499556338e-03 6.4336688518092395e-05
      -5.3179262666446902e-04 -1.6266426424359427e-03
      6.1729614329622258e-04 1.1581170067967148e-04
      2.5165765818013154e-03 -6.3373754639896123e-04
      3.2612162699349674e-04 -3.9012586322864754e-04
      -1.3437678183324893e-04 2.1878492304061199e-03
      -1.9371646327445665e-03 3.6277857855588404e-04
      -4.9652650882623436e-04 -1.1853431627627970e-04
      -2.4682784084280348e-03 -1.2979249181039169e-03
      -1.3376216297522026e-03 1.8498776879161149e-04
      2.4354028840645105e-03 2.1067186359397150e-03
      1.3054257406991225e-03 1.3231202878931006e-04
      -3.5357687443542249e-04 4.8208500766831552e-04
      -5.0787452737550802e-04 -2.2377648498127542e-03
      7.8083042104011157e-04 -1.9976944284265932e-03
      1.9798782457698715e-03 -4.1815145963644296e-04
      1.0521405290128865e-03 -7.2106966735756056e-04
      -2.7237983307437007e-04 1.9284291844999255e-03
      -1.6665542322933890e-04 -1.6789117498151082e-03
      2.0113297671314765e-03 7.6614884610414608e-04
      -7.6667213445274064e-04 2.1592752835153587e-04
      2.0487599718050785e-03 2.1642768112344916e-03
      1.2583495522118112e-03 -9.5289112450592790e-04
      2.4396299104872269e-03 -1.8037646977883128e-03
      -2.1390324922971955e-03 -1.2044727959224576e-03
      1.2710011585058039e-03 8.4237466328999466e-04
      1.7445973596247601e-04 -2.2914435232510126e-03
      1.3792733268538481e-03 -1.3445701536480468e-03
      -9.9165080616318304e-04 -1.0252649791211695e-03
      1.7383685717860088e-03 8.3475800318834629e-04
      1.6955970035531466e-03 -1.9474320287039652e-03
      -2.3745644618927385e-03 -2.4045434905608045e-03
      2.0242958552051738e-03 -1.6535649944979173e-03
      2.2515769280976195e-03 -2.2821587819305609e-03
      1.4674907443746864e-03 9.6153850231216643e-04
      1.6441875043471353e-03 -2.2128687898473226e-04
      5.8294967992311437e-04 4.0146242211643230e-04
      1.2733482564120928e-03 1.5873314018848902e-03
      1.3779173977255417e-03 -3.4799572963562701e-04
      2.5060278671219750e-03 1.4638641198351458e-03
      8.1803235508839977e-04 9.3086133484131370e-04
      -1.8918569964522696e-03 -1.8756813898104558e-03
      2.4719649401662766e-04 6.9733476809816838e-04
      -4.1047907213923745e-04 -7.7661275895082849e-04
      7.0745268196984660e-04 6.0869023417614479e-04
      -2.2873373615675745e-03 2.1581972292815835e-03
      2.4508645993001669e-03 -1.6561113050128607e-03
      1.0035985829378333e-03 8.1703720706761292e-05
      -1.9176041416294367e-03 2.4585316438366363e-03
      4.9535751934656785e-05 -1.4539875971365838e-03
      1.9253610400030933e-03 6.9058112253687790e-04
      -1.9125537258740061e-03 9.9211302618200554e-04
      5.0801726227337309e-04 7.2705446151314626e-04
      8.7508685808397420e-05 -1.9480771778339525e-03
      2.4055644931465837e-03 -7.8185768977447620e-04
      4.7135845319667551e-04 3.8785625459655598e-04
      1.4578728426691133e-03 5.9453927828856260e-04
      -9.7930166634538655e-04 2.0496264771339230e-04
      -9.6093613638088598e-04 2.3627119997782059e-03
      -2.3970218737346138e-03 2.3389194980346492e-03
      -1.3004611533888174e-03 -5.0615525434609095e-04
      -2.1472955874481726e-03 4.4810974402181587e-04
      1.3030582680488023e-03 1.9583630290614541e-03
      -1.1619411946025831e-03 6.4554164547118108e-04
      1.1254067656120586e-03 -1.8163640154742985e-03
      -5.0456291278852918e-04 2.0526397677752537e-03
      1.6049210066932885e-03 1.3098506832661290e-03
      -2.0415496405611312e-03 -1.7803969982401475e-03
      7.4100406392412486e-04 -8.2437664626402215e-04
      8.9809220792818559e-04 1.3421245448896552e-03
      2.0637445173381057e-03 8.6229818494644353e-04
      2.4009120297708076e-03 -1.3588261717373826e-03
      4.0065156872828422e-04 2.4787694276847813e-03
      -1.3235607816222900e-04 -2.2231560780724474e-03
      -4.8421095320006527e-04 -9.9267481399862597e-05
      1.3552415830083515e-03 2.2426335121382254e-03
      1.2912352596488772e-03 -1.0599467800361381e-03
      -2.3027547573928843e-03 1.2979308167313786e-03
      -9.0086686450632588e-05 9.0316388948050023e-04
      1.7146425639824779e-03 2.4234828999597936e-03
      1.1276431603710751e-03 2.3542599003364625e-03
      -1.8224354407016428e-03 6.3793818966005340e-04
      -4.5483835231059790e-04 -1.7904393972247516e-03
      -5.1237598861593296e-04 1.4103550723808958e-03
      -1.2520213837183367e-03 -1.7751366994576787e-03
      -2.1777072629169604e-03 5.3044867391029594e-04
      -8.0569770055013171e-05 -2.4864618801235527e-03
      -2.4096415390908671e-03 2.0347155842395936e-03
      2.2316468074166343e-03 5.7966250703999863e-04
      -2.1914352878136343e-03 5.5942917577900221e-04
      1.7078833080952560e-03 -9.2755444185413372e-04
      1.5664382345328355e-03 -8.5468095061152691e-04
      -1.7718096747289068e-04 -1.9103448134238695e-03
      -1.4799590041414486e-03 3.4537075391851443e-04
      1.1217946838101166e-03 1.2635789218211004e-03
      -3.7118098624049745e-04 -1.4607093728413768e-03
      1.4758739711562665e-03 -2.8300756117773384e-04
      -8.2780983069710495e-04 -2.3020143497481721e-03
      -3.0872666242507139e-05 -2.4026070994910786e-04
      -1.8270714466226208e-03 -1.2598472283047804e-03
      -5.9432311933060780e-04 -2.1617026237535203e-04
      5.1004646403261333e-04 1.2971085896814533e-03
      2.2483823218272911e-03 -3.8550050064924888e-04
      6.7809992690513461e-04 -2.2988698332137123e-03
      1.9452484249988028e-03 -3.8949923083069601e-06
      -2.1622974276891025e-03 -1.3152908377553464e-03
      -2.2196054261431532e-03 2.2362247884933641e-03
      -4.4455632555629094e-04 -1.6901745765478249e-04
      -1.8767305091337151e-03 -3.6114077437378127e-04
      -7.1707220335538681e-04 -8.7257375731498543e-04
      6.3658427540250987e-04 -1.9144402936929516e-03
      -1.6094908646691233e-03 -9.6525295792300458e-04
      2.2775023749482238e-03 -1.5378489689386874e-03
      1.0983302328566103e-03 7.7648579607019169e-04
      -2.0502875263660189e-03 -1.2727675234889843e-03
      -1.9562648023334138e-03 -9.3962858286022595e-05
      2.5482289794991997e-04 -1.5899541147416365e-05
      -1.4300228462995338e-04 1.8522368411822783e-03
      5.4393173534555495e-04 2.0413755657237337e-03
      -2.4246882534054966e-03 -1.5983198833681767e-03
      2.3103620254295854e-03 -8.8337914397778618e-04
      -4.4379399652727796e-04 -2.5904275908852806e-03
      -4.6954480804626349e-04 -3.2596705973121079e-04
      2.5105426972719474e-03 6.5560188796330622e-05
      -1.0185507633896260e-03 2.4886366159001562e-03
      -4.5490151453889024e-04 9.7867329636085101e-04
      1.9395028825553078e-03 2.3955841549328678e-03
      9.3269958725550014e-04 2.5645471031008065e-03
      1.6809372789824376e-03 2.8748914114326346e-04
      1.9531897644414517e-03 8.1509246201670355e-04
      -2.5430592039605089e-03 1.7423934204340284e-03
      1.3862703546509046e-03 9.7500176621165161e-04
      1.0027698700918260e-03 -6.7994559704048557e-04
      2.2409416188022271e-03 -1.5834604178905256e-03
      8.9974731467861097e-04 -1.3739726409083526e-05
      -8.3544142057065212e-04 8.9774725401720414e-04
      2.1265421915944147e-03 8.6861477209044114e-04
      -1.8893438167644804e-03 -1.7688557019557396e-03
      -1.9251123614667366e-03 1.9543852568165562e-03
      -1.2588641648999270e-03 2.1833229941085838e-03
      6.1114597723560440e-04 8.6629638332531855e-04
      -2.2013946077117817e-03 1.9168179459980185e-03
      2.2934112681996014e-03 3.4617952880662046e-04
      5.8179775795204302e-05 -1.9058318291120604e-03
      -2.0801126377768069e-03 1.7960451330998855e-04
      -3.0347213050494154e-04 1.3874539241138027e-03
      7.1408250814265794e-04 -1.2982595763843131e-03
      -1.4110598109178404e-03 1.7228979503908404e-03
      -2.3356234657282101e-03 5.4946580875963854e-04
      1.9509086080484318e-03 -1.0161234535909045e-03
      -4.5874637402158042e-04 -1.8679201680198076e-03
      2.3046693640085586e-03 -1.6133776091862653e-03
      1.8531886030541545e-03 2.2441237391910267e-03
      1.9575793272894257e-03 1.1936592616355630e-03
      1.7292045332026158e-03 -1.3373843055019671e-03
      -1.0835617816808093e-03 9.9719466186924655e-04
      1.3049170294497704e-03 -1.8944373380843754e-04
      1.3453371848797001e-03 1.6668523155892474e-03
      -2.0013100923226158e-03 1.0104715836602859e-03
      -1.9549535419952470e-03 -1.2791272319069252e-03
      -1.4083477510861806e-03 -3.9919729350369797e-04
      3.8519675970390935e-04 -2.4711055439764046e-03
      -2.2742104499226296e-03 -1.9938547207857178e-03
      1.7880048587811993e-03 1.8127082099995682e-03
      -5.9325374795568195e-04 -1.2939437754492730e-03
      3.1725875963820483e-04 -2.2776892967856196e-04
      6.8789815982213507e-04 -2.0772184141089464e-03
      -1.8048372726238660e-04 6.5037984742106363e-04
      -1.6161239679988177e-03 1.2111791365565457e-03
      -5.7470172040545420e-04 2.4060450046367063e-03
      1.8323361640977809e-03 -2.2985147291212032e-04
      2.0016066995525907e-03 -4.6215584673108326e-04
      1.1071119469367339e-04 1.9483601142757589e-03
      -2.5766100724491339e-03 -1.1157349056881132e-03
      1.9046413532882865e-03 1.7216067636497254e-03
      2.3360098179398196e-03 3.1970703664174115e-04
      -1.6750459651997164e-03 -1.0424689746071358e-03
      -1.2022700332642883e-03 -1.9790836181747648e-03
      1.4944276221134710e-03 -1.4354356215456009e-03
      -2.1355983436319743e-03 -4.6268756629154002e-05
      2.5985908243444373e-03 -1.4594410494733938e-03
      1.8472363957464640e-03 2.6364873979361725e-05
      -1.7613844164874798e-04 1.0771649984815720e-03
      7.8864344345441783e-04 -1.8844443419157944e-03
      -4.1358414891943482e-04 4.0535358845667028e-04
      2.0010345094221169e-04 -5.3874073635589088e-04
      -9.3397837979627236e-04 -2.1309216476788980e-03
      4.7989271460182638e-04 -7.5519107547346971e-04
      -4.7679046976309382e-04 -2.5206638311487360e-03
      -1.8048956249266802e-03 -3.5788816324989320e-04
      -1.4261101824983192e-03 -3.2186199158433531e-04
      1.3986964634286948e-03 2.3110838462156312e-03
      -2.8540797903124480e-04 -1.2614380158311777e-03
      1.6174433962397848e-03 1.9480201744087131e-03
      -2.2410506238388114e-03 2.3788936592639082e-03
      -4.0706635823380388e-04 1.4625742507677715e-03
      -2.2058142552644072e-03 -1.9338001148628823e-03
      -4.5413100938620441e-04 2.0516705744178625e-03
      -2.0139679901961922e-03 1.3722600374686814e-04
      1.2852951014435162e-03 -2.3867216082617995e-04
      1.0571142779363426e-03 2.4532350791749347e-04
      2.2289135559638794e-03 2.4251603315615824e-03
      2.5915431241493230e-04 8.6453206922066197e-04
      2.0797070601210393e-03 3.8229772567304539e-04
      2.4411819650279223e-03 -2.7221998849243832e-04
      -2.1045582925956247e-03 6.1290236337596253e-05
      1.3657038610298228e-03 2.2807226625943342e-03
      -2.1040409949779935e-04 -7.1452307338973244e-04
      1.8823009020732884e-03 -1.1696280567659138e-03
      -2.1049809838225189e-03 -1.3843149704619625e-03
      -7.9721027097440060e-04 1.3449201182180600e-03
      -2.0735513814188833e-03 2.6180134743747359e-03
      1.4042345143389890e-03 2.4080179518188205e-03
      2.2461113169178716e-03 1.4835996106308048e-03
      4.6279342685534878e-04 -3.3676988723630005e-04
      1.0574467755980737e-03 8.2486307321568228e-05
      9.1649112455583382e-04 2.1926257487017878e-03
      1.5125818525157471e-03 -1.6692540118957797e-03
      1.2403621261023244e-03 1.2707615221039525e-04
      1.0625085725932282e-03 -2.0970464201543783e-03
      -1.6102025973157322e-04 2.2582377730560356e-03
      1.3346641921549269e-03 -2.1481487578598898e-03
      -3.4466190709328342e-04 -1.4372041758088569e-03
      1.2198402567852346e-03 -4.6740147303056518e-04
      1.4673070633667588e-03 9.4636073322019022e-04
      -1.5526363457527923e-03 -1.2597219311371943e-04
      -5.5855486060464316e-04 -7.6340694244359230e-05
      2.5651307298332126e-03 1.6332461154388064e-03
      1.3933530959494246e-03 2.1487810294368491e-04
      2.4395007264041415e-03 1.0083227505868981e-03
      1.0866993975280320e-03 -9.4568611333624322e-04
      8.6742186538582566e-04 -1.2731616041040559e-03
      -6.2080893567873462e-04 -9.6863703941395469e-04
      8.0870828225220110e-04 1.2714543205914685e-03
      -1.4767568051640519e-04 -9.8720537291832242e-04
      -6.3733168567790810e-04 1.0500045383394986e-03
      1.3150051117995988e-03 1.0648612881681316e-03
      -1.6979481330853328e-03 2.0475963328546376e-03
      -2.2518258514068095e-03 1.0647127356068532e-03
      1.1000862758503351e-03 1.9269722174095056e-03
      -2.2590916956136104e-04 8.2417846027025665e-04
      -8.0137626827632565e-04 3.2619692883485983e-04
      -2.0003163525945280e-03 -8.7856067247579404e-04
      -2.2923315339726663e-03 2.2696820965224453e-03
      4.1445220129873527e-04 -1.3812075540032803e-03
      -1.1596080624959818e-03 4.2188753171901563e-04
      -4.6442626217688907e-04 -1.9767490169119105e-03
      8.7166080025191065e-04 2.3409624055072175e-03
      -1.0878030903741802e-03 -1.6261515090611534e-03
      2.3106966357777990e-03 -1.5312348534887435e-03
      1.5577223835917659e-03 1.2402848816311990e-03
      -2.5629611247890340e-03 5.5857836450195748e-04
      -1.9344341630834006e-03 -1.5387115677449265e-03
      6.4146339203151716e-04 -1.4750222452569882e-03
      -6.5739134297657911e-04 1.0772837563461789e-03
      -2.3994049841019839e-03 9.9880555377908288e-04
      6.9937782762510511e-04 -4.4235098180667686e-04
      -1.4807582432812948e-03 -8.1327302925341121e-04
      -8.5743692156425714e-04 2.4455351255263315e-03
      -6.2476690371071890e-04 -9.6015519394785449e-04
      -4.9795548374289439e-04 2.2753060457181666e-03
      -1.5937936737722266e-03 -1.9027901790851141e-04
      -2.1609967800823469e-03 3.1088001151806933e-05
      -1.9422024116302126e-03 1.4135803207936657e-03
      -1.1663424366815420e-03 -1.6943928071513671e-03
      -2.1301232316687790e-03 2.5881526316683216e-03
      -1.4964492299042226e-03 -2.2556058099437895e-03
      1.0255851767908403e-03 -1.6814761673363304e-03
      -1.1337765656816394e-04 -2.3655031569131714e-03
      -4.3733778557159469e-04 1.7710248833957840e-03
      7.9576091447161699e-04 1.1108746529939217e-03
      1.8801985502359994e-03 -1.7696032078088392e-03
      8.1884852424857582e-04 -1.8765747056397578e-03
      -8.8383622758231501e-04 1.9018054980318427e-03
      -2.5379208479015857e-03 1.2591487671138252e-03
      1.6022975335717836e-04 1.2331094443537144e-03
      1.8130488899208179e-03 -1.9203427786271959e-03
      2.0540869537603950e-03 -1.5115133138399221e-03
      -1.6273797294085264e-03 1.4595077709442848e-03
      2.1500332146638362e-03 -2.2595750313815139e-03
      -6.2119979698994627e-04 1.6760455692754808e-03
      1.3003126284557670e-04 -6.7451436445344353e-04
      7.2099915235179627e-04 -1.1121050293336522e-03
      1.4921695728344890e-03 9.5041160064363896e-04
      2.4881888848396877e-03 -7.4261324683057739e-04
      -1.1530117471950181e-03 2.1542062630055410e-03
      -2.1408238626305729e-03 1.0010029584908374e-03
      -1.5733748757722420e-03 -2.0777391565108458e-03
      -4.8572966590327589e-04 1.5738758034481940e-03
      -1.5984858822996086e-03 -4.2751603384774694e-04
      -1.2635724120359107e-03 -1.5023537717764226e-03
      5.8445706911420766e-04 -2.2879513757507504e-04
      1.4652770447192533e-03 6.6767230597981962e-04
      1.6545465388365342e-03 2.5066566556648600e-04
      -2.0605160160412439e-03 -1.3791298574283911e-03
      -2.4561063012180986e-03 -1.5013584209272986e-04
      -1.5331415569684683e-03 -1.5989184528132264e-04
      2.3131962272601625e-03 2.2752937033953423e-03
      1.4371612449975560e-03 -3.5268486249092566e-04
      1.0325179124811496e-03 -2.4074923826715778e-03
      -4.0960012500262629e-04 -5.3569432070853468e-04
      1.5021888199908667e-03 -2.5024374048398437e-03
      2.0878475325707990e-03 -1.9772491519590893e-03
      2.2312311419803318e-03 -1.0220612182747554e-03
      3.5350755327567888e-04 -2.2573781738710472e-04
      -1.6092384497807396e-03 -1.1034737801801483e-04
      1.6851917558334656e-03 1.7476042043423515e-03
      3.4857653163492541e-03 -8.3472503689858491e-04
      1.7605544541341909e-03 6.3143435323613178e-05
      -8.0807736410006621e-04 -8.7188311437544483e-04
      9.0226137436722950e-04 1.0943291861100527e-03
      1.4313647299696859e-03 -1.0489267600027666e-03
      1.2730192803036930e-03 -9.8441418549204259e-04
      2.2129180900306005e-03 1.6095458016016973e-03
      1.5483330587720305e-03 1.4363527350678437e-03
      -1.3694494534776578e-03 -2.2447114972144991e-03
      -1.7788970222193240e-03 -3.1433629931477302e-04
      -1.7833857005477224e-03 -3.1647118566107611e-04
      -1.3628056161221534e-03 -8.5188779034611718e-04
      -2.1079363994031520e-04 9.3247119781535051e-04
      1.5278215920609296e-04 -3.0628558762612132e-04
      1.0730967427904738e-03 1.3345959451276387e-03
      4.4816608234076095e-04 -1.8455147217273345e-03
      1.0025606046099194e-04 -1.5362158600095229e-03
      -1.9152949887195998e-04 -8.6049028943207477e-04
      -1.4420671391179106e-04 2.0100784211257018e-03
      2.5902421191806936e-04 -2.3926171480931897e-03
      -1.8309614319389148e-03 -1.5638420523900753e-03
      1.1843912534428497e-03 2.9243803777662986e-03
      2.3760037566208312e-04 -2.5633802820175496e-03
      -1.7518141242172638e-03 -2.9362244886614350e-03
      8.8243329700831569e-04 1.5375327435755164e-03
      -1.2632509719011985e-04 1.5830719033277197e-02
      2.0490686198766333e-03 4.7887218088493114e-03
      -1.1637207951645948e-03 6.3231931132718181e-04
      -7.9670839984647551e-02 1.7069604219444351e-03
      3.5194540609882132e-03 8.9551060377382528e-04
      8.3268158183556734e-02 2.8231108627369254e-05
      -1.3615039073370319e-03 -8.9332944376427587e-04
      4.1629192877935327e-05 2.8573896872819462e-04
      2.5810662831641470e-03 1.6008440481698333e-03
      -4.9233244046269686e-04 -1.2494088580254588e-02
      9.3296759680191641e-04 2.8199200322149981e-02
      -8.3277463367190845e-05 -4.4136876484866831e-03
      2.3679498906601336e-02 1.0280609969593498e-04
      1.2078139506070205e-02 1.2590308504770536e-02
      -5.8482947801044901e-03 -1.1919049055370630e-03
      -1.2610530585068823e-03 1.9838330481350957e-03
      -4.9621090450703859e-03 -5.7862105163484449e-03
      4.6980334375943270e-03 -3.6350236740032106e-02
      -6.2762852316972768e-04 -1.7668693866161075e-03
      -3.2887634806749656e-04 -1.1876219124046198e-03
      -1.4550884449817311e-04 -2.3526604289021667e-03
      6.9851035546320114e-04 -3.2764624729289820e-04
      -4.2601791209651387e-04 1.0670807754603617e-03
      -3.0263375631732173e-03 4.4777345439954326e-02
      1.8772225776064906e-03 1.2388616856870006e-03
      -1.3078751177940443e-02 1.0939997299737698e-03
      -2.2327964318597559e-03 3.1180810959479405e-02
      -2.0257401814708590e-03 -2.1845617438201507e-03
      1.8901936855242557e-03 -3.7227404597275728e-03
      -1.6609352711202865e-03 1.0798751158690191e-03
      3.7568845943569635e-04 2.0347284447961033e-02
      2.1699676724672382e-03 3.1389558253556190e-03
      -2.8896090079982744e-03 7.9575512334221067e-04
      -1.4864841012066782e-01 1.0677736908367600e-02
      3.2837078932079402e-03 -1.6724084874513206e-03
      1.6606074163158493e-01 -2.9162218259820996e-03
      1.4708057584628224e-03 -3.1035560284345988e-03
      -2.4578698923245182e-04 -2.2241415450427429e-03
      1.5187088306576931e-03 -1.9066228293873188e-03
      2.2490217349152883e-03 -2.7364311678030741e-02
      2.9442796023031742e-05 5.7841165454042595e-02
      -1.5820480215347037e-03 -7.1548279214258713e-03
      4.0811402418325968e-02 1.3233145236280026e-03
      2.3863967209797079e-02 2.4918703644210130e-02
      -8.3139634269106585e-03 6.3998776769864094e-04
      1.8547097316453014e-03 -2.6980343293088525e-03
      -7.5633624510953960e-03 -5.9921272515138070e-03
      6.8927009108982196e-03 -7.5593751935832496e-02
      -2.8435279820250266e-03 -2.2954427238331301e-03
      -1.5802715449221951e-03 2.9001823379015963e-03
      8.9001490546315265e-04 -7.4446129163614257e-03
      -1.0848502208955400e-03 -3.0388105524606925e-03
      -4.3287510110611951e-04 2.2260824837930429e-06
      -2.8031158005197123e-03 8.8474382099486895e-02
      4.8921927785783945e-03 8.0052076122349004e-04
      -2.5034960075202100e-02 -4.5652224161464626e-03
      -5.0053840914470443e-03 6.5693923401122511e-02
      -4.9220384371140085e-04 1.2858252317575120e-03
      -1.8206669627315894e-03 -6.0152681272838049e-03
      5.7067589480406435e-03 2.2026359297091305e-03
      -3.3690120836073569e-03 9.5867146683605471e-03
      2.1254052195843688e-03 -8.2363401379507740e-03
      -1.2879116953168756e-03 9.5904304366679070e-04
      -9.1148443429439799e-02 7.2777388145999176e-03
      -2.7209248555061180e-04 1.5207035649487904e-03
      1.1767404587493850e-01 -3.4666870538110290e-03
      3.0258575782051433e-03 -7.2838953247793368e-04
      3.7778598008224888e-03 -4.0386169504357119e-04
      6.0042806430030268e-04 2.7089360475198135e-03
      6.5110621359008001e-04 -1.7027599517764343e-02
      5.9179911575182875e-03 4.2658235345102262e-02
      -2.0653385520058732e-03 -2.3676696416473856e-03
      1.3993195712745527e-02 2.2195393369197321e-03
      1.5256250932416516e-02 2.2184300297455009e-02
      -1.5175447421606919e-03 -4.3411359070903987e-04
      -1.6365197416472735e-03 1.8206576724844180e-03
      -5.0172122735388409e-03 -5.3251928089174646e-03
      2.4587018114548467e-03 -7.6336600059807608e-02
      -1.4142475128779365e-03 9.8563641382885953e-03
      9.7660227857609494e-04 6.4180023055636056e-04
      8.3460099657101225e-04 -1.0225011174860649e-02
      -1.1676551805924892e-03 -1.1302222063628883e-03
      -1.5880003448330438e-03 1.8127594899928520e-03
      1.9601315858401394e-03 7.5322672807340979e-02
      -2.4084558430296005e-04 6.2675743080076445e-04
      -2.1293767063811544e-02 2.1456150752040409e-04
      -4.1482447600354917e-03 6.5407107881543899e-02
      2.7437443108510044e-03 -1.7586150883016685e-03
      -5.7990533980556641e-04 -3.5237049851472987e-03
      3.9516025689093721e-03 -1.1881717090670247e-03
      -1.2819603465024246e-03 2.0894149297896645e-03
      9.3208289658331604e-04 -1.5391750952436846e-02
      1.6875610465792016e-03 -2.8596998211731273e-04
      -1.7676088326593845e-02 3.6796960118184916e-03
      -4.1761994799764867e-03 -5.1445053844650218e-04
      2.4985616650871817e-02 -3.4429390035491661e-03
      3.1712256226413310e-03 1.2110037933157115e-03
      2.0463441817594190e-03 -1.1767039810513247e-03
      1.5166629643085401e-03 -5.5048376243410321e-04
      3.1069345389131025e-03 -3.5615670434270552e-03
      3.7680072450494962e-03 1.6200504861431871e-02
      -2.2325474004554744e-03 3.5514135673429272e-04
      -1.6842311743274919e-02 1.4054286929143602e-03
      1.9230566220643584e-03 1.2834684687606721e-02
      -1.8398088082355825e-03 -1.6257704513893078e-03
      -1.5542488780240875e-03 -2.6652913990524564e-04
      -3.1533039809771204e-03 -7.7595804393426919e-04
      -3.4063582644294748e-03 -3.5457438627834313e-02
      2.3830894405693103e-03 1.5009427453942547e-02
      4.0733753982654747e-04 8.1640464903685753e-04
      -1.6071741035085358e-03 6.0345946706180024e-04
      -1.3847456133122003e-04 -9.4075678566855649e-03
      2.2447993908981455e-03 -1.5201986813932339e-03
      5.6435032779267218e-03 2.3336440693676717e-02
      -7.8312365369755067e-04 2.8049683760166016e-04
      -4.2410981029509824e-03 4.5667379317727006e-04
      -3.1199330587932711e-03 2.4415158456722423e-02
      1.4300681404519229e-03 1.6740771614677365e-03
      3.3742816878623181e-04 -2.2070034291140723e-03
      4.4661630933175720e-03 3.3610664591467118e-03
      -2.1704273308512764e-03 4.7813864935404328e-03
      -5.6769002293036489e-04 -2.7897665499654303e-02
      -1.1154324744507690e-03 6.1210091505286906e-04
      -2.2303538665998178e-02 7.3651468672916777e-05
      -1.8985218129802443e-04 -6.7616910635618505e-04
      3.5424679152579991e-02 -2.7450743793057432e-03
      2.9420311895540039e-03 -6.4216794044557072e-04
      1.3035020908886525e-03 -4.7439505324924119e-04
      1.2582837791788606e-03 -1.1031526634077866e-03
      2.0337704828494634e-03 -1.5137746817383585e-03
      3.0891605817909553e-03 2.5276539055329120e-02
      1.4009328302556235e-03 8.6210303013292981e-05
      -3.4065322309440149e-02 -1.2542808804517354e-03
      3.3234530025920161e-03 1.2186447457075800e-02
      1.5562156969399618e-03 -1.9235800526663568e-03
      1.9616030662378652e-03 -9.0972303264742532e-04
      -4.4532234301120066e-04 -2.6563025258728823e-03
      -3.0939229689823282e-03 -4.8663363298542442e-02
      -2.1976542716100602e-03 2.1205349694310181e-02
      -1.2500018285044794e-03 -5.3199223431673953e-04
      -2.5904313492833097e-04 -3.0807227448126731e-04
      3.8747727503508542e-04 -1.5072890837660941e-02
      4.7470373607968352e-04 -2.6498502309555685e-04
      5.2315413151455764e-03 3.8465196281715984e-02
      -1.7387810654187401e-03 -1.8613153644174761e-03
      -9.8237882249516172e-04 -2.1554321541802628e-03
      -3.1431226475239090e-03 2.8631941369179660e-02
      2.5386420706814596e-03 2.6969596920993145e-02
      9.6010632577153980e-04 4.7423351020588565e-03
      1.2464117289199563e-03 -4.4105778123080393e-05
      -1.8199615320323506e-03 -1.4707671442515488e-02
      -7.7884115197916900e-04 -8.1282073181719552e-02
      9.0060188274862247e-03 -1.1772303526235265e-02
      -3.9665894302809479e-02 2.2853434520910043e-02
      6.7779239368321068e-04 1.9496649068580845e-03
      7.0843102041975636e-02 -1.2831992375610193e-03
      -1.6683883041846981e-03 7.2240046574270991e-04
      2.9132465081292995e-03 -2.2699322089515831e-03
      1.4854210473380029e-03 1.2821252131736727e-02
      -3.8322906952461045e-03 2.0609931326319685e-03
      3.3415315685410532e-03 4.0666568954031791e-02
      1.4977398951816974e-02 -3.5378662433766866e-03
      -3.7705300000077019e-02 1.2150011204100253e-03
      -3.4517089633788051e-02 1.8269111245165347e-02
      -4.3625789451581989e-03 8.0575053578384995e-04
      1.1723355374594023e-03 -1.8544881365194534e-03
      -1.6950364666085539e-03 -2.0459513373606241e-03
      2.1601605654829270e-02 -5.3557810949164085e-02
      -1.5612757575463780e-03 3.0475901167135361e-02
      -3.2489270062118998e-02 -2.1817563420671671e-03
      -1.4556310394713452e-03 -3.5873833485267374e-03
      -7.1816697500112563e-05 -1.4389169597908803e-02
      -8.4395589350284438e-04 3.7173213118487924e-03
      6.3691541063521989e-03 1.3032609022481481e-01
      -5.1187329821472888e-03 -1.7734946809705578e-02
      -7.0004157588866786e-03 -3.1512201124238899e-05
      2.9960884672782195e-04 4.0876614952481960e-02
      -2.1719642756463375e-03 4.4395018118680310e-02
      -1.3916163129893883e-03 -7.2802498020294584e-03
      3.7560772022494581e-03 1.0392688457451775e-03
      3.8401949812330360e-04 -4.1228689808541143e-02
      4.2755896765754187e-03 -1.2747541500575452e-01
      2.1743155847255651e-02 -2.9015102017090157e-02
      -1.1193534605680287e-01 5.4431224590514235e-02
      8.3704847412669500e-04 1.0156741908378965e-03
      1.4201162864642175e-01 1.6569444478956477e-03
      -1.3477814237796058e-02 1.0704260521144059e-03
      -1.3916488349344409e-03 1.0994863480275922e-03
      -2.5780699397195332e-03 2.2338260294795690e-02
      -7.7837578835876020e-03 -3.8018977987587660e-03
      -4.0378277142633784e-04 7.3975915733275777e-02
      3.4048906099124754e-02 -1.7694338877629140e-02
      -4.3913001331865577e-02 1.6523869647367153e-03
      -5.5181695043695307e-02 3.5392546672923880e-02
      -2.0676249956528853e-03 1.1169493769853510e-03
      1.7737099481005504e-03 3.3214279259597243e-03
      -1.2171960131286639e-02 -3.9173431418615635e-03
      4.5032101216081533e-02 -1.1964681264368317e-01
      1.3135205906979011e-03 4.1736122174697660e-02
      -6.5561021112395423e-02 3.0382835554933993e-04
      -1.9658731690963345e-03 -9.2647623847216601e-03
      -5.8877107508646274e-04 -1.8136033901820191e-02
      1.0834876130251458e-03 -2.5200259345885719e-03
      -3.6270147161074737e-03 2.6503388369656289e-01
      1.4894315625229827e-03 -4.7667273450378918e-02
      -5.8664537109099938e-03 -3.0159053685165668e-04
      -1.4540121050968164e-03 7.9476298839327345e-02
      -3.8181521789159851e-04 1.4378851843210996e-02
      -3.8417343306185732e-03 -1.1655932508314454e-02
      4.2132166888162630e-04 2.4015014916359385e-03
      -1.1912341421498542e-03 -1.8604102828355569e-02
      3.3958837794088085e-03 -7.1143813623017541e-02
      1.0562397095154434e-02 -1.3268421497152585e-02
      -6.0675977585368697e-02 3.2851793473709492e-02
      -4.1391332212059716e-03 -2.9778140756303076e-03
      8.1646842661007274e-02 -5.4315602482520454e-04
      -5.6899619725300464e-03 -3.4586027468290303e-03
      8.8358865884551161e-04 -1.9463053072612375e-03
      5.2522386260525937e-04 6.9192181863535424e-03
      -4.2826106516475216e-03 -3.6836920897610060e-03
      2.2083002731946829e-03 5.3580538408142586e-02
      1.2789356117330779e-02 -1.3129389189722762e-02
      -8.3658463962485524e-02 3.2403587477817892e-03
      -2.4499606494081179e-02 3.1613788774148319e-02
      6.7220868794651504e-03 -2.5171985753531805e-03
      2.6894733337590607e-03 -3.9944827773144749e-04
      -1.0629386659541572e-02 -6.0614307237944129e-03
      7.4936342590170811e-03 -1.0727315448079723e-01
      -3.2732708259869143e-03 5.7961701078254324e-02
      -2.6084484432692377e-02 3.9260472529138906e-03
      -1.2765289461225043e-04 -4.9369567424816692e-03
      2.3498383475610805e-03 -2.7234653443152242e-02
      3.9953433766510559e-05 -2.4669501431533371e-03
      6.0904843080985078e-03 1.6385967246489663e-01
      6.9119183506801741e-04 -4.7540101544263524e-02
      -1.7941292505676287e-03 5.0515991426638876e-04
      -3.6923551747911512e-03 6.8724186379607949e-02
      1.0135737104095255e-03 -4.8046555850452255e-02
      8.6725920177080640e-03 -6.4841925154981344e-03
      -5.8435996206551481e-02 6.1358707865461176e-04
      -3.2687938516227774e-03 7.1560643775650089e-03
      1.0195168927739290e-03 -2.4992437205658264e-02
      2.0796113717647890e-03 9.2337252700274211e-04
      -6.1165728468786762e-02 5.7059655004746785e-03
      3.0341608473286784e-04 1.7665435569927440e-03
      6.3434028356698355e-02 1.0501920856752707e-01
      4.0941838106469411e-04 4.4968807349940237e-04
      -1.9305654816357237e-02 8.9968785997290781e-04
      -1.3837129302968875e-03 1.1443315978906341e-03
      1.9324409706032952e-04 -5.2491544909361171e-03
      -5.0011770578495256e-02 3.8217525438141449e-02
      -7.7883029203331083e-04 -7.2563575485181655e-03
      -8.5461460226181896e-02 -3.7768577298670780e-02
      2.9909303264810836e-03 2.0163660939364857e-02
      8.9205137603245097e-03 7.8283982343376574e-04
      -1.3149535627222846e-03 -9.0960700497292669e-04
      -1.5661244228934665e-03 -6.2913671742931858e-03
      7.3279246491171589e-03 -4.6656809030914390e-02
      -7.5960549034128776e-04 1.2723019955610428e-02
      -5.5744943449599913e-03 1.9574452354076109e-03
      1.0187104450185129e-02 -3.5712903915625720e-04
      4.2498579636860074e-04 -6.3339869974561480e-02
      1.2976706560442965e-03 2.0030066538065496e-03
      -1.6307418295682440e-03 8.2571453363746689e-02
      -1.1189843207784045e-02 -5.2948693305233989e-02
      -7.0455070078010874e-03 -1.0308461102054786e-03
      -1.9481143270363077e-03 5.2631467035159356e-02
      2.2100757778511856e-04 -1.1704781010658727e-01
      3.0041644027213203e-02 -1.8362901429662258e-02
      -1.0007089155353983e-01 5.0415905767480854e-03
      -4.4015631983565671e-03 2.4965093679375883e-02
      2.5168226420915355e-03 -2.1703647798825905e-03
      2.4344282186963520e-03 -7.0743354567814574e-03
      -1.3453057244775526e-01 1.2749336340641817e-02
      2.9468049699348645e-02 1.9666418932590287e-03
      1.4747016470237320e-01 2.3735276437298658e-01
      -1.7148710065261756e-03 -8.8584130987052806e-04
      -3.8099386231790870e-02 9.3066002108136195e-04
      6.5265063780134240e-04 4.9938544719453247e-03
      1.6084266604005502e-02 -1.2610559084950148e-02
      -1.1852270654715660e-01 5.7626398898056687e-02
      -1.9661784118041033e-03 -2.6660763095407748e-02
      -7.8924294643929513e-02 -1.0595970438857243e-01
      1.1087139260508902e-02 2.1007696535099759e-02
      2.0888035289120730e-02 -4.0307164889067729e-03
      1.6323151783359175e-03 -5.8269838752400582e-04
      3.9398335152218593e-03 -1.1915464241084814e-02
      3.0718875933731613e-02 -6.0083541074868387e-02
      -5.6975179737434262e-03 -5.5701950929532555e-02
      -1.7252450815039639e-02 5.7517893918709595e-03
      2.5689455365127029e-02 -6.9202491106655443e-03
      3.9185397656855570e-03 -8.6527078023639917e-02
      2.8692038916684351e-03 1.9634906772301192e-03
      -3.4679643072636185e-02 1.0567742005056932e-01
      -2.7396328773528746e-02 -8.5286938755820885e-02
      -4.9143977575259040e-03 -5.9777119178929614e-03
      -6.7922271431655112e-03 8.6801890881606877e-02
      -2.2280233955305007e-03 -6.4776505475104620e-03
      3.6242096323802660e-02 -2.1905756539723861e-02
      -3.6866907427899631e-03 1.0159659065847189e-03
      -3.1297707636617233e-03 3.1436431129472510e-02
      1.3033355246540031e-03 3.9485046559295418e-02
      1.3262350254014559e-03 -4.6866251301262686e-02
      -9.7235259028016524e-02 2.3234890255446682e-02
      8.5865881733528035e-02 -3.3143407783526674e-04
      1.9824998563351851e-01 3.1408791019197670e-02
      -1.8975617829625944e-03 1.9086449385003886e-04
      -4.5703191822890335e-03 -2.4944445341816618e-03
      5.3325766471440991e-04 1.4242426348309852e-02
      5.3574261087613484e-02 -5.8513410781362478e-03
      8.3785683037462307e-03 5.3157301030909286e-02
      1.0924544938985710e-04 -4.9165193417021351e-02
      1.5020353070375714e-01 -4.4559986513116184e-02
      1.3498582178114685e-02 9.6682452453572092e-03
      1.0503041941147682e-02 -1.3293777845956487e-03
      4.0184856866803441e-03 9.3029013367767208e-04
      -6.5438410560906927e-03 -4.9901127517366578e-03
      8.5552364046780818e-03 -4.3197105168823045e-02
      2.6212292771041067e-03 -7.2309308984060294e-02
      -1.8155586231373758e-02 6.9136553212808537e-06
      4.4439309075954489e-03 -3.2541801048003708e-03
      -1.3212474121867975e-03 2.5062394290546519e-02
      3.0541051151460261e-03 -1.6783489613335248e-03
      -7.6320480739161645e-02 5.0199257654276276e-02
      -1.9904998985534389e-03 8.2057207677974114e-02
      -2.7313398575175865e-04 -1.2797546120395130e-03
      -1.3903119387624881e-03 6.4351860616768120e-02
      4.6618037477532083e-03 -2.6471206962968831e-04
      1.4671262607899660e-02 -2.1157969227767335e-02
      8.5249865368655924e-04 3.4057335447817529e-03
      -6.2096726763440983e-05 9.1565112582564761e-03
      2.4142240242348016e-03 -2.4034467926849306e-02
      -6.6991649025897909e-05 -1.2060634600468917e-02
      -6.8967191322762402e-03 1.0128334170481625e-02
      3.1688001409835485e-02 -4.2331242087456671e-04
      7.7216483249878676e-02 1.9363390469737847e-03
      2.8966501463744123e-03 -1.8591611716840093e-03
      8.6635957500063438e-04 -8.0832035639860395e-04
      3.8763875779987655e-04 4.5671181776310235e-04
      2.5095045495729752e-02 -3.4573292688395508e-03
      5.8158890850498590e-03 2.4673385855049742e-02
      -4.9764132418239344e-04 -2.6520486923687515e-02
      1.4325504384000565e-02 -1.7123636073244689e-02
      3.1683998770464434e-03 5.2603228578898447e-03
      4.1985943024436005e-03 -1.1743094195747984e-03
      1.1544605165719009e-03 -2.8499975279986851e-03
      -3.8076648998836807e-03 -5.4397825919598073e-03
      -1.8477958315573347e-03 -2.8249076642471102e-02
      4.6378438474617547e-04 -2.6469707930920337e-03
      -1.6814560275265800e-03 -1.3524951369484495e-03
      -6.9202825207822073e-04 4.0836348159437459e-04
      1.7114650678832916e-03 -4.7475626902587463e-03
      6.5613562103777098e-04 9.9001698060468342e-04
      -2.5307469637045294e-02 1.9687844357406770e-02
      -9.7921226213295025e-04 -5.3881932340980668e-03
      -3.4450098666133317e-04 7.3058364065973689e-04
      -1.7783380333320073e-03 3.0972646589657867e-02
      7.7763569235785371e-04 -1.4784988849252570e-02
      -5.4789747090734268e-05 -4.6244059280294621e-04
      1.7023866069695779e-03 7.3173296485321958e-04
      -3.6702590622012350e-03 -7.8787763722628201e-03
      8.6832367241593711e-04 -8.5653445081551496e-02
      4.5100512621908497e-04 2.2111585872719393e-02
      -8.0418389528452826e-03 1.5978198468044956e-03
      -2.3443148526015654e-03 2.2112422648020864e-04
      3.5815399490264077e-02 -2.1773048571557744e-03
      3.1021335227332360e-03 -2.4316559719766290e-03
      -1.5047555291478601e-03 -2.8247888402477820e-05
      -1.0927607128941167e-03 -1.7399595973832133e-02
      2.0533907600011540e-03 8.6519024602790674e-05
      1.5528466199719419e-03 2.7625268846128280e-02
      -2.8703586168771331e-04 -6.2305757259735663e-03
      -8.8430124400354623e-02 -1.4725400109144450e-02
      -2.8709331819509196e-03 7.4432973536580002e-03
      9.4127886668096287e-05 1.0225359818651653e-03
      1.2526828744582315e-03 -3.9265004175025641e-03
      9.7339194287030323e-05 -4.8665412735630830e-03
      -4.3234582910380882e-03 -4.6385080944320159e-02
      -1.4219855477039854e-03 1.4837835686081166e-02
      2.5982941364968169e-02 -7.6158952734587781e-05
      -4.5166274296178831e-04 -9.4951470661106964e-05
      7.0004738932074727e-04 -7.9873946472137497e-03
      -6.8245827750413950e-04 -1.7604616517977601e-03
      1.2127550237349622e-02 2.8941674126584910e-02
      1.4523514101514874e-03 -1.3811665514424004e-01
      1.7241530062646481e-03 -5.8341152290640409e-04
      3.9233888620329602e-04 6.5313678292681032e-02
      3.0178444996881219e-04 5.5133894030215159e-02
      1.9806178598599953e-03 1.5288406009488475e-02
      -4.1521797107260054e-04 1.1404894557909403e-03
      1.9123478673769958e-03 3.1777779926964976e-02
      -6.7792148850882069e-04 -7.5801265245490357e-02
      -1.1205098670091639e-03 3.1116975277643084e-02
      -1.4577814719759406e-02 3.3953200458450732e-02
      -3.5024354458643206e-03 -1.4003352619203885e-03
      7.6569061189419974e-02 -1.6544098736609712e-03
      8.2214675047944134e-05 -1.5594004337080871e-03
      -5.6495003450458900e-05 -4.2211028039508668e-03
      -7.8554768977368895e-04 3.3763403308622174e-02
      1.1143085837212399e-02 -2.0086692984798787e-02
      -1.1498003718097296e-03 5.0214772831755961e-02
      -2.1938212446002774e-03 -6.1942037645523864e-03
      -4.8264390705501259e-02 -7.4426944743723383e-02
      9.7550346228172848e-04 8.2033465499424408e-03
      -2.1126781399807182e-03 2.6204849800439012e-03
      -1.0030033157877243e-04 -5.6790763181749425e-04
      2.9876334163167623e-03 -2.6759201686242335e-03
      3.3205342532137083e-02 -1.7098619651355135e-01
      -3.3855485680751774e-05 1.9304142109592626e-02
      5.1313492981861003e-03 -1.0962937027166096e-03
      1.4606109235511639e-03 -5.7445907276233478e-03
      1.2242478024620622e-03 -2.2349648676321551e-02
      8.5269607553125379e-04 -1.6869992709641942e-03
      2.3288344644304491e-02 6.2298646221926171e-02
      5.1986820011182509e-03 -1.2059114451610248e-01
      -5.9249944725025729e-03 1.4595321166958137e-03
      4.2241273977037061e-04 2.1611117148222062e-01
      3.5402810864043036e-03 3.8845945906121476e-02
      -1.6665130486808902e-03 5.9783258954919045e-05
      1.4204400243145740e-03 2.8197934270105716e-03
      -2.4335282044094099e-03 2.7660738081087110e-02
      -2.4307704469604418e-03 -3.0688103636873302e-02
      -4.0057292357568797e-03 2.0450018150004832e-02
      -7.9313827336901458e-03 2.3353910342358040e-02
      -2.6148998867302430e-03 7.2976329216106024e-04
      4.4020885542854424e-02 1.0064780923802706e-03
      -2.4382151469026282e-03 -1.4538244315944718e-03
      7.4609155972856574e-04 6.0501268789143157e-04
      -1.5251006219511483e-03 2.2089291912409409e-02
      4.3953503253136798e-03 -1.5209259805958336e-02
      -1.2143719392716070e-03 3.2143369041592922e-02
      1.8233455488304651e-03 -2.8346345843803596e-03
      -3.2037147792987206e-02 -4.4754453292956561e-02
      1.7568545206932676e-03 6.4643155160156261e-03
      4.0810252802618970e-04 1.5480628466893562e-03
      -4.1861299801963006e-04 -6.9367030672669934e-04
      -1.6210088126329954e-03 -2.5590774770281586e-03
      2.4847856075969805e-02 -1.0390252988925834e-01
      -1.5442648217890342e-03 1.2679630083342431e-02
      -8.6047647898154214e-04 -1.3658934958958606e-03
      -3.2320076812007497e-03 -6.0153056748629512e-04
      7.3560759998404009e-04 -1.3690875005909970e-02
      2.0191023553425497e-03 2.4048730219935715e-03
      1.5429019532970982e-02 4.0873871600953980e-02
      3.3703940123065378e-03 -6.7570687644302477e-02
      -8.8979940726929298e-04 3.9989621498583532e-03
      1.1876162336080214e-03 1.3552457028732415e-01
      2.1244654187855222e-03 -1.3858300580881493e-03
      2.3882619022194632e-03 -2.1679432409753064e-03
      1.9653196886633422e-03 5.0528958359462078e-04
      8.8404656451105182e-04 5.8671406861043245e-04
      3.9865560430326762e-04 -2.9178529764973551e-02
      -1.5514198441263771e-03 3.6332438881357082e-03
      -8.5431469660897964e-03 3.3103625239898162e-03
      -7.5358342833447157e-03 7.2526128027862468e-04
      1.0561324016237583e-02 2.2349540986861365e-03
      -2.1135482527187993e-03 -5.0848754168726802e-04
      4.5948605169046386e-04 -1.5848172107300236e-03
      -2.0352657373093916e-03 3.9714078678397911e-03
      2.3704397021088656e-03 -2.7069468164330542e-04
      1.8539932656492803e-03 7.3073844148314531e-03
      -4.8409467621823659e-04 -1.3128307566496798e-03
      -3.4695059001404654e-02 -4.6594307368344060e-03
      2.1681219670309586e-03 5.1066129392776964e-03
      7.3828690424995898e-04 1.4608770718362275e-03
      1.4946914044126479e-04 -2.2642675839083421e-04
      3.9686417372268605e-03 -2.2362641929089843e-03
      -1.9380744993828841e-03 -2.7065413315712578e-02
      4.9339390490967710e-04 1.4118671161017751e-02
      -1.3664382285297671e-03 -5.3457083178653293e-04
      -2.5070629680440026e-03 -7.0245667726915402e-04
      5.2508627008083641e-04 -4.4342027094932757e-03
      -1.2717539599184301e-03 9.3704053202828047e-04
      2.7342671008818427e-03 1.2805472186141639e-02
      -1.8947390214019578e-03 -3.1963953720153988e-02
      -3.4564551791087093e-04 1.3272335053062560e-03
      -2.5719467484002895e-03 3.1659817643138195e-02
      -7.7276474793345259e-04 -6.6958045272143578e-04
      5.8604410241050930e-03 -6.2147033405140452e-03
      1.7338804734293909e-03 7.7082553154649935e-04
      9.3586274133964037e-04 -1.5977925574406682e-04
      1.2259256036330963e-03 -7.1286299112767451e-03
      -2.5658649870521030e-03 1.6159360542001604e-04
      -2.6018230823390498e-02 2.8141248433740064e-03
      -3.5848711226285500e-03 1.8703487782928308e-03
      7.0263153482340380e-03 -6.5791259857698819e-04
      -9.9936411371672569e-04 -4.3420931157598741e-04
      -1.5346853882031674e-03 -4.0842620356643349e-04
      1.9803001689188077e-03 3.9981272841569044e-03
      1.5949373793199223e-03 1.8185143633765229e-03
      -8.2526266139291006e-04 5.3010881494800462e-03
      -7.2134225829374678e-04 -5.1003111065899016e-03
      -4.5978606625480638e-03 1.7361681513722797e-03
      5.9083621054081279e-03 7.9204526118006428e-03
      1.0386429487002728e-03 -2.5629328598388724e-03
      1.2062498429777644e-03 -1.9698442734354739e-04
      1.5561733996922273e-03 -3.7129387985102261e-03
      -1.0487472678761844e-03 -1.2433058673758622e-02
      -2.3181571033838448e-03 8.5503415236641185e-03
      3.0698030038394065e-03 -1.4214477929092233e-03
      1.0574977272224263e-03 1.7862326092231279e-03
      -2.2668025211905899e-03 7.2997424009576303e-04
      2.4128009783712526e-03 3.4983754045649876e-04
      2.3594985557600662e-03 1.7731194864620121e-02
      1.4038424228549097e-03 -1.1319452829113447e-02
      -5.0032322696259525e-03 -2.8205967020733694e-03
      -3.0297760380329306e-03 1.2925099446799874e-02
      1.3317760349904253e-03 1.2943494119200527e-03
      1.1714648691022598e-04 -2.5331529705174783e-03
      2.4034393432465894e-03 -2.5662414587368640e-04
      -1.2021219577300368e-03 -1.3573151023200593e-03
      -5.4202758147215715e-04 -4.9820223768078564e-04
      2.5098289490253713e-03 -1.0190862462012983e-03
      -2.6659666215837454e-02 1.3704971119293879e-03
      -1.2214316889180999e-03 -2.4734253329564610e-03
      8.2928107466452329e-03 -2.4985227197138337e-03
      -5.0660191269672286e-04 1.2252161245833591e-03
      -1.4291445054014566e-03 -1.6183568219863486e-03
      -2.0628589209552347e-03 3.0426653787378276e-04
      -2.4331583618248734e-03 -2.2601493878529576e-03
      -1.4121028574717984e-03 8.1539066331421071e-03
      1.6221186555971090e-03 -3.9437006212668043e-04
      1.1573589425939571e-02 -1.5512785472923324e-03
      4.1149352304284612e-03 1.0265102821497049e-03
      -9.3905010936645196e-04 1.4557693026437731e-03
      -1.9544516449944678e-03 -1.7030266803990438e-03
      9.1443381357358305e-04 -9.8842444503548775e-04
      1.0060020688609660e-03 -1.1762641892954688e-02
      2.7562731140378199e-05 -8.3037105059939880e-04
      -2.0178544199800411e-03 1.0113329959015268e-03
      -2.2015608680816309e-03 -9.4384963676834278e-04
      1.7525401142125458e-03 1.0374852907417873e-03
      1.0710452725221148e-03 3.7515320559214301e-04
      -2.3989445860740648e-03 1.5399016106221269e-02
      -1.2134661741616602e-03 -6.8818612493451589e-04
      -9.7269753087072894e-03 -1.3605470801372756e-03
      -1.4328799918467742e-03 8.2045051583805578e-03
      -4.2595629590518654e-04 -1.0273108582891117e-03
      2.1960525273506349e-03 -1.8376135002353819e-03
      3.4276292421605247e-04 8.3765531448783950e-04
      6.7181308426208218e-05 -3.8027284772987346e-04
      6.8782644271238151e-04 -3.8968554133812002e-04
      -1.6895053202459580e-03 1.6674421002062126e-03
      1.3964554155444769e-03 -5.4082215792299656e-04
      -2.5872276408383985e-03 2.4475868123302368e-03
      2.1506106430897879e-03 -5.4955780790026567e-04
      1.3146171819082939e-03 1.5600292554563272e-03
      -9.7017473360554358e-04 -8.2640045472476221e-04
      -2.2738766437815448e-03 -1.3746022223563921e-03
      -9.9621110961224365e-04 -1.3425568643211714e-03
      -1.6733350455293262e-03 -2.3994029067426308e-03
      -1.3899219206834211e-03 2.2482821864161671e-03
      -1.0708819007305395e-03 1.9315880530674202e-03
      1.5325594197172893e-03 -1.7065100910913602e-03
      -1.8796713162371581e-03 1.0930826359840803e-03
      6.7358839470599242e-04 -2.0669365084053141e-03
      1.8603734640677929e-03 -5.2106977838956936e-04
      7.7217917381007637e-04 -2.0677196718101808e-03
      -5.4576185465998555e-04 -8.6496771146207200e-04
      -5.4849850128615507e-04 -1.2133500132347748e-03
      -1.7962226747101754e-03 -1.7063489521601520e-03
      -2.1448317587805729e-03 3.0527443600001514e-04
      1.4603745425727978e-03 3.8549720329868572e-04
      -2.2420594675359694e-03 5.3937882902709282e-04
      -2.1445178284100193e-03 1.4452878807870982e-03
      9.2644261554516983e-04 8.9032261082778400e-04
      2.0306165845458556e-03 -4.0844072356251317e-04
      9.4666085250087880e-04 -1.1715283343086483e-03
      -1.8690078810365844e-03 1.5157302308869240e-03
      -4.9917683869876847e-04 -2.4819651364029139e-04
      -1.7181206047659032e-03 5.6075090736708918e-04
      1.4521558493007917e-03 8.1566867846865297e-04
      7.9009476601067761e-04 9.8459702568247484e-04
      -2.0594863451230904e-03 -1.0602085341548623e-03
      2.3064152796664246e-03 -2.1746925785727841e-03
      1.4904768993650088e-03 -1.8801220170735708e-03
      -7.1328965890775516e-04 -1.5200296495881250e-03
      -1.6648836803618563e-03 -7.4602335989031922e-04
      -6.2591367097065433e-04 2.2123741452059306e-04
      -1.5361384250837376e-03 -4.6416421942863334e-04
      1.3622178332838915e-03 -8.0884378748865020e-04
      -4.4568891177079175e-04 -3.8376828904963155e-04
      2.2835415684261388e-04 -1.1698375220466474e-03
      1.9550664882719733e-03 -1.4863049534510485e-03
      1.5342725609846901e-03 -1.2327517188046944e-03
      -6.1279363199753573e-04 -2.4101708718963204e-03
      7.5099735182261823e-04 -2.2152142033116874e-03
      -1.0629050080465453e-04 -3.9654882087608091e-04
      -4.7423810821026874e-04 -5.5411114505862107e-04
      9.5376868911756544e-04 2.3142391791575393e-04
      9.8295445343370277e-04 1.8580168687695926e-03
      -1.0246996149599972e-03 1.5216789141651262e-03
      2.2531594540693713e-03 -2.3535940127974958e-03
      1.1224636219570993e-03 -7.9728850579694410e-04
      8.3496202447115781e-04 4.8932339686097600e-04
      -1.0545654462035262e-04 -1.3691561713079369e-04
      2.2162887279720180e-03 -1.4567674345700905e-03
      -2.5433020234524716e-03 -6.0917777012191798e-04
      -1.0243555310515174e-03 5.6164809568628511e-05
      1.3125081738006173e-03 -1.1646649907001961e-03
      -5.7232545585975082e-04 7.9409378074065339e-04
      5.2525459296606780e-04 -7.3730731355178640e-04
      3.2346125482950975e-04 3.7007119143863835e-04
      -1.6329123984334271e-03 1.9794332397126513e-03
      1.3407270053849220e-03 4.4715531528221925e-04
      -2.7627833077130024e-04 2.1807933008756068e-04
      8.0994581885708743e-05 1.6691529706220245e-03
      7.8214483086584989e-04 -2.3558050299358655e-04
      1.8038380505200596e-03 -2.5168388585589067e-03
      1.5875507429576050e-04 1.9992969271260459e-04
      -1.4452996570859099e-03 2.1254332202077599e-03
      1.6875579797957525e-03 -3.7638164573227658e-04
      1.5220237128613539e-03 6.7384705924085483e-04
      5.9131039208246898e-04 1.4902455593044357e-03
      1.8016122559191745e-03 -2.4387624820771453e-03
      1.1876450394623906e-03 -2.0711300499421164e-03
      -2.4766741373389531e-04 -1.5058585371521720e-03
      1.6785815018771231e-03 -1.5129552847530621e-03
      -9.7140753670421956e-04 1.4344133157405807e-03
      1.4077034417226089e-04 1.8400162816767415e-03
      6.8685084532144752e-04 -2.3928231847619328e-03
      1.7994307067490548e-03 1.9111430782682748e-03
      1.1219891165071610e-03 -2.1629108107393924e-03
      -2.3438591915968601e-03 1.3389245690590488e-03
      -1.6420666764000614e-03 -1.2191316961189568e-03
      2.1107873370537476e-03 -2.2404827260666190e-03
      8.0185931592350517e-04 6.2148563238236779e-04
      -6.6317271273082126e-04 -2.2911854998381781e-03
      -2.9519998662640574e-04 -1.9309493140872186e-03
      -1.9333995313871772e-03 -2.4370765442687467e-03
      -9.1610860412403975e-04 2.4344209519636902e-03
      -8.7584547312904559e-04 -1.9105254571286829e-03
      -2.1894588113834110e-03 2.4893358798529384e-03
      -1.2907823099651786e-03 5.3862207534696759e-04
      2.0886316524248282e-03 1.0011271982769527e-03
      -6.1361117655588018e-04 -1.2065459225038572e-04
      1.0431278750759536e-03 -2.8980876507844630e-04
      -2.5237683822909723e-03 1.9078244357336608e-03
      -2.3131431448332814e-03 -6.9577822284592355e-04
      1.7731558774309254e-03 3.8609216598790966e-04
      -7.2508382609811554e-04 -1.5628406483106489e-03
      -8.7056793412720499e-04 -8.8818542788376422e-04
      -2.3648002282210200e-03 -2.3046106039260094e-03
      -1.8273474107911745e-03 7.8101721294403172e-04
      -2.4284081929627902e-03 -9.7363504280359686e-04
      1.2749683048495066e-03 1.7881170033954088e-03
      1.2963071712408789e-04 2.3841736168036367e-03
      6.8304087962952665e-04 -3.9935091385819542e-04
      -9.6606802884248260e-04 1.3437023408383196e-03
      9.4302692601107969e-04 -1.7421066001621691e-03
      1.5363804360184178e-04 1.4195456839250730e-03
      3.4642819537763761e-06 -2.0262472216198341e-03
      -1.5660724943233274e-03 1.9743839525303564e-03
      1.3663382438212942e-03 2.2107091783635201e-03
      -1.5318497338656929e-03 8.5183730337411005e-04
      2.1901206389511722e-03 -2.2832872437018657e-03
      -9.8297426476581925e-04 -1.6641679618135112e-03
      -7.6272466411753776e-04 -1.4356679063903298e-03
      9.6621799641466162e-04 -1.5238026284125586e-03
      1.1542600699219710e-03 -2.0374664745649042e-03
      1.0312369059176567e-03 -2.0522245148380854e-03
      -8.2806884781193061e-05 2.3103196179233483e-03
      -1.8302201270248781e-03 -9.4987287458832888e-04
      7.5118359494815736e-04 -5.6469910689209315e-04
      -1.6509054420295465e-04 1.9634341498924223e-03
      1.2898075729208703e-03 1.7588185428129024e-03
      5.5201714495602648e-04 -1.8264212917405271e-03
      -1.4756680161124582e-03 1.3553196301755422e-03
      2.3464544274385212e-03 -1.2746613046167872e-03
      -6.4708073483834855e-04 2.0182978577412474e-03
      6.3902203234292537e-04 -2.3367327295263844e-03
      8.0223946173718543e-04 -1.3039555788718260e-03
      4.9734268434733142e-04 7.2763609094960403e-05
      2.0474566068597539e-03 -2.4372238641026927e-03
      -2.0190691858043276e-05 -9.9689924036893860e-04
      -1.1007332852460234e-03 1.6615743155507627e-03
      2.4814887294937762e-04 2.2800610540415168e-03
      -2.2474243562594408e-03 2.3781130395476471e-03
      2.3986102173243853e-03 -8.0384228195365219e-04
      2.1062008602454464e-03 -2.0331038056501287e-03
      -3.9587724624686439e-05 1.9699912012462214e-03
      -1.0022625141463595e-03 2.1061725397492182e-04
      2.5047423776939537e-03 -5.1243523461526753e-04
      7.2607849231323750e-04 2.7070148002071137e-04
      1.9712560777523816e-03 -2.5439934431071842e-03
      2.3237709137848566e-03 2.0331603456790535e-03
      1.8454648825350346e-03 -1.3473641481023365e-04
      -1.7851055141981469e-03 -5.1275361159205826e-04
      1.9143922192823241e-03 8.6171414531380848e-04
      -1.8939784894459418e-03 7.6571282638410762e-04
      -3.2100974637908324e-04 -1.5636694402751433e-03
      -1.8036853231533638e-03 1.4580304274602561e-03
      -7.1132632031692649e-04 -1.3745181159152834e-03
      1.5571137039958672e-03 -2.5403850486705060e-03
      -6.0200606447611410e-04 1.9669479364560196e-03
      2.4311923862610583e-03 2.1430813710837920e-03
      -6.8292746665413894e-05 2.4773617207937922e-03
      4.1742260336129769e-04 2.5005862681040962e-03
      -2.3948836515229467e-03 -1.3968979651497930e-03
      6.0427149415575984e-05 -1.8843292093522514e-03
      2.5302061055955658e-03 2.3565491169462559e-03
      -4.0789374464238561e-04 1.1916287961706310e-04
      -2.2229452219637551e-03 2.1280912857435104e-03
      -2.0085270049645955e-03 7.6557051427769088e-04
      -1.7269302460526097e-03 -2.2467405122957590e-04
      2.0707502079938932e-04 -1.1061343201222657e-03
      -1.1562221893517291e-03 -1.9703688231162784e-03
      -1.5418997189631338e-03 5.0467665487791624e-04
      -2.2737956406156242e-03 6.2949729272759739e-04
      9.6966774226412032e-05 -6.0675918976163144e-04
      1.9751953762432744e-04 -2.0534748073309057e-03
      1.9045589325047639e-03 6.3195698831382610e-04
      -1.7931221237762350e-03 -1.3174142515003841e-03
      -2.1987690967868443e-03 -2.5012648324804218e-03
      1.7418827633089197e-03 -1.8626094703873598e-03
      -2.5227894730835239e-03 -6.0913639899358983e-04
      9.2857016052622755e-05 -1.7444571769081702e-03
      1.6958118757867302e-03 -7.5812883619663846e-04
      -1.1533454637121728e-04 1.9958913379061623e-03
      -2.8497859955131720e-04 -1.9170690820827043e-03
      2.3084707329712986e-03 -2.2568906554844559e-03
      5.7488488610419578e-04 -1.4900329402593795e-03
      2.3640360170464488e-03 7.8316087062667945e-04
      -6.1199603779242453e-04 2.5281987370276583e-03
      -1.0100975955242546e-03 -2.1885240719736552e-03
      -3.8784407950733798e-04 -2.0275946328952464e-03
      1.8615687127804156e-05 1.0455386677597303e-03
      1.1940721878023384e-03 1.6572266240703379e-03
      -1.8218466562439943e-03 -2.0550255404390588e-03
      -2.0708494535708328e-03 5.3935510387220157e-04
      1.8949013062316766e-03 -2.1507119987601196e-04
      -6.5416841178715288e-04 -1.1269021723606706e-03
      1.4825088386377137e-03 -2.0737486721137113e-03
      2.3097405362555567e-03 1.7053758728257204e-03
      2.0608528838122705e-03 -1.6991975512876537e-03
      2.2716435694499697e-03 -1.7761076217228098e-03
      -4.8401025774829963e-05 -2.2472169314739845e-03
      -5.5359436777339987e-04 -2.3074491760824304e-04
      1.5073837435126622e-03 1.0504315186559714e-03
      1.8001842284968276e-03 -1.0998203064609571e-03
      7.6904362642601118e-04 3.4533776070786365e-04
      2.1342899029274790e-03 -1.3270231150935583e-03
      -1.7493353703192448e-03 -1.0969504563274435e-03
      1.7828517159249452e-03 1.1797756372540604e-03
      -2.2363372086656257e-03 -1.6933144957115484e-03
      7.1197771286847088e-04 1.6852155481708365e-03
      1.0739772646289039e-03 2.4391495062452088e-03
      5.5087651983096641e-04 1.5298438228324360e-03
      -1.7814569743741615e-03 -7.1107285474319808e-04
      7.5919824303829326e-04 -2.2880483782353328e-03
      9.4799609740917369e-05 -1.1943404365037159e-03
